#ifndef MODEL_WEIGHTS_H
#define MODEL_WEIGHTS_H

#include <cstdint>

// Auto-generated by train_voice_commands.py
// Labels: ['on', 'off']

// Dense layer 0: input_dim=1274, units=64
static const float W0[1274][64] = {
    { -8.86902120e-03f, 6.45486936e-02f, 8.10142308e-02f, -1.30910864e-02f, 3.93845774e-02f, 3.87248695e-02f, 4.78996783e-02f, -3.31849302e-03f, 4.42323573e-02f, 4.69411118e-03f, 2.19498929e-02f, 5.72355138e-03f, 4.88172621e-02f, 8.34919047e-03f, -2.36996859e-02f, 7.57275075e-02f, 2.69337744e-02f, -2.92698084e-03f, -1.15057006e-02f, 3.54791954e-02f, 6.90864623e-02f, 5.40569564e-03f, -3.06697749e-02f, -3.78256589e-02f, -5.65221198e-02f, 1.02703357e-02f, 1.65987741e-02f, 1.62755158e-02f, -1.54910726e-03f, 2.39580087e-02f, 3.95112624e-03f, -1.66906584e-02f, -6.44846587e-03f, 8.61393809e-02f, 3.70603837e-02f, -5.55465557e-03f, 1.50560960e-02f, 1.95885543e-02f, -4.64558676e-02f, -1.13366768e-02f, 1.37370406e-02f, -2.15108812e-04f, 3.78578380e-02f, -1.35083776e-02f, -4.55182940e-02f, -4.12079692e-02f, -3.69870551e-02f, 5.66423833e-02f, 5.78714684e-02f, -5.33694401e-02f, 8.88504367e-03f, 4.22667861e-02f, 6.45832047e-02f, 5.80638088e-02f, 1.00302584e-02f, -1.84968077e-02f, 3.94096226e-02f, 5.29308058e-03f, 5.28815649e-02f, 7.02778399e-02f, -2.71013808e-02f, 8.33202060e-03f, -5.04780933e-03f, 5.14527820e-02f },
    { -5.04702851e-02f, 4.63017188e-02f, -5.22060208e-02f, -2.90005580e-02f, 8.19677263e-02f, -1.14417467e-02f, 2.82786693e-02f, 1.06749730e-02f, -2.28966754e-02f, -9.54123363e-02f, -3.06197517e-02f, 3.76976468e-02f, 7.94410706e-02f, 7.28971064e-02f, 1.69928595e-02f, 1.29956812e-01f, -7.96118565e-03f, 4.53277864e-03f, 5.94452731e-02f, -2.71230433e-02f, 5.15045151e-02f, 1.38863981e-01f, -2.30527055e-02f, 7.22944066e-02f, 2.31282227e-02f, -4.18916494e-02f, 2.24660318e-02f, 3.80644724e-02f, -3.90172899e-02f, -4.23874706e-02f, 4.95486706e-02f, 5.31680696e-02f, 5.49576171e-02f, 3.28387916e-02f, 8.04797336e-02f, -1.00901321e-01f, 7.48169273e-02f, -3.59311737e-02f, 6.42207861e-02f, -1.19080963e-02f, 1.96576063e-02f, 1.53958593e-02f, 2.16917833e-03f, 4.60726134e-02f, 6.51583225e-02f, 5.65869361e-02f, 5.88910170e-02f, -1.23032853e-02f, 1.08699352e-01f, -3.44821066e-02f, -2.94247121e-02f, 5.43549694e-02f, 4.20707017e-02f, 3.36345658e-02f, 1.16163539e-02f, 1.63936377e-01f, -4.89519648e-02f, -3.30263898e-02f, 3.79910432e-02f, -3.57764326e-02f, -3.61489505e-02f, -1.71023514e-02f, 1.62504166e-02f, -1.66830700e-02f },
    { -3.26761864e-02f, 4.84637171e-02f, 9.10973549e-03f, 1.36419032e-02f, 1.08680278e-02f, 4.06979062e-02f, -2.09431676e-03f, 1.38105884e-01f, -3.62443402e-02f, -1.47588730e-01f, 2.58013383e-02f, -2.72784550e-02f, 1.35700274e-02f, 2.29350813e-02f, -3.29559185e-02f, -1.12277918e-01f, 5.97493574e-02f, 1.71101652e-03f, -5.68010285e-02f, 5.87392785e-02f, 2.89762598e-02f, -3.29648936e-03f, -5.43109234e-03f, -4.61600199e-02f, -3.83842997e-02f, 5.87119460e-02f, 1.33003504e-03f, -6.99449107e-02f, -9.04757902e-03f, 1.97418146e-02f, -2.73425747e-02f, 2.08656266e-02f, -1.99003033e-02f, 3.98258306e-02f, 7.26954127e-03f, -6.37923181e-02f, -8.67029466e-03f, -4.30878364e-02f, 2.16496140e-02f, -4.74494062e-02f, -6.46108808e-03f, -1.64815765e-02f, 2.89272219e-02f, 5.36552677e-03f, 2.71116421e-02f, -5.39342053e-02f, -1.20460149e-02f, 3.34145576e-02f, -5.55637889e-02f, -4.04574946e-02f, -1.80801619e-02f, -4.46645953e-02f, 1.10846907e-02f, 6.26580939e-02f, 1.78051870e-02f, -1.22556977e-01f, -1.92478877e-02f, 1.33259445e-02f, 4.42023054e-02f, -3.94457864e-04f, -7.28808343e-04f, -6.68969750e-02f, 2.23723035e-02f, -5.19240201e-02f },
    { 1.59485117e-02f, 3.00734229e-02f, 9.00382176e-02f, -6.02324214e-03f, 1.33202616e-02f, -5.20863868e-02f, 3.32787223e-02f, -4.05560173e-02f, -5.04468083e-02f, 5.21246484e-03f, -4.72043082e-02f, -2.02346817e-02f, -5.44084683e-02f, -1.04815178e-02f, 2.34964099e-02f, 5.47428876e-02f, -2.01820601e-02f, 8.37213993e-02f, 1.48644662e-02f, -3.62316296e-02f, -2.20682342e-02f, -3.14091109e-02f, -1.04444556e-01f, 3.47614922e-02f, -6.22904226e-02f, 5.90427928e-02f, 5.63537553e-02f, 1.43436957e-02f, -5.44664562e-02f, 1.12655170e-01f, 4.49403413e-02f, 2.23222338e-02f, -6.83213845e-02f, -1.45144472e-02f, -1.81211531e-02f, 7.36630261e-02f, 3.56240496e-02f, 6.30335137e-02f, -1.34456689e-02f, -2.52995314e-03f, -2.85577755e-02f, -3.29059064e-02f, -6.60365894e-02f, -6.69699237e-02f, -5.16486466e-02f, 9.32275802e-02f, -1.94950067e-02f, -3.85258310e-02f, 3.22057754e-02f, -1.38377976e-02f, 1.90120544e-02f, 3.36718000e-02f, -3.95758711e-02f, 5.18588722e-03f, -5.06716371e-02f, 9.05953944e-02f, 3.47305536e-02f, -2.03140751e-02f, 3.82532328e-02f, -2.31364233e-04f, 5.96381389e-02f, -2.42002122e-02f, 1.28165390e-02f, -4.23846766e-03f },
    { -4.44325730e-02f, 4.27375268e-03f, 5.89728244e-02f, -6.42580027e-03f, 7.30072409e-02f, -5.84393218e-02f, 6.60095811e-02f, -1.03566296e-01f, -3.96701023e-02f, 2.30924450e-02f, 5.04845157e-02f, -2.53673233e-02f, 2.33395724e-03f, 7.77036622e-02f, 4.12487276e-02f, 4.25574481e-02f, -1.44870915e-02f, 1.04235299e-01f, 5.60029484e-02f, -5.64148948e-02f, 2.39250157e-02f, 8.91688541e-02f, 4.88224067e-02f, 3.14880870e-02f, 3.20327282e-02f, 4.43926267e-02f, -8.16741437e-02f, 4.93024364e-02f, -7.01766834e-02f, -1.49718281e-02f, 1.29211657e-02f, 5.36226146e-02f, 3.30305994e-02f, 2.65848208e-02f, 3.63195501e-02f, -9.46314186e-02f, 4.51528132e-02f, 2.22972222e-03f, 8.51015747e-02f, -2.12208051e-02f, -1.50720682e-02f, -3.17765288e-02f, 3.40669863e-02f, 9.01860744e-02f, 6.21468201e-02f, -2.11116076e-02f, -5.69927320e-02f, 2.39406526e-02f, -8.76181573e-03f, 4.48651128e-02f, -8.69041309e-02f, -3.15735303e-02f, 1.95270460e-02f, -5.94579428e-02f, -5.12274243e-02f, 3.81441228e-02f, -2.71198768e-02f, -3.35361883e-02f, -3.68543193e-02f, 4.21814919e-02f, 2.23890152e-02f, -1.51608018e-02f, -1.57180671e-02f, 3.60741578e-02f },
    { -2.93968525e-02f, -2.55506318e-02f, 7.10637197e-02f, 9.87186432e-02f, 2.88016126e-02f, -4.54722457e-02f, 2.28305496e-02f, -2.81228945e-02f, -7.79531838e-05f, 5.24394251e-02f, -1.20413937e-02f, -1.01551659e-01f, -2.99787894e-03f, 4.95337695e-02f, -4.57953028e-02f, 1.29991807e-02f, -1.75807588e-02f, 7.18222708e-02f, 9.50835198e-02f, 4.19774652e-02f, -1.14426680e-01f, -2.55348925e-02f, 1.72790021e-01f, 8.19822587e-03f, -1.24764806e-02f, -2.22640242e-02f, 5.66690490e-02f, -3.08256298e-02f, -3.80627215e-02f, -5.89063540e-02f, -4.63690571e-02f, -2.45910641e-02f, 2.49161944e-02f, 6.46298146e-03f, -5.02458960e-02f, -4.36082308e-04f, -3.70476791e-03f, 5.62610775e-02f, -9.07969847e-03f, 3.28798965e-03f, -2.02494469e-02f, 2.64154710e-02f, -4.16190773e-02f, -1.24648977e-02f, 2.42996924e-02f, -8.04283097e-02f, 7.43984291e-03f, -3.04696634e-02f, -1.18452817e-01f, 7.76133537e-02f, 1.81923788e-02f, 6.66956138e-03f, 5.83075061e-02f, -6.35209307e-03f, 1.34781087e-02f, -1.37513280e-01f, -1.33315858e-03f, 2.92112939e-02f, 2.12598089e-02f, 3.23681021e-03f, 3.64965387e-03f, -4.61006947e-02f, 8.45822543e-02f, -6.09986857e-02f },
    { -6.67163804e-02f, -2.87227668e-02f, 5.85113838e-02f, 4.92025279e-02f, 3.83711420e-02f, -3.86478938e-02f, -6.05679527e-02f, 5.70984744e-02f, -3.70146893e-02f, 1.22911692e-01f, -1.12638278e-02f, -2.33006906e-02f, 5.62378131e-02f, -1.23649044e-02f, 6.88136672e-04f, -8.65766704e-02f, -2.70400494e-02f, -2.84553077e-02f, -2.33810693e-02f, -3.12035754e-02f, -1.57315373e-01f, -1.02237530e-01f, 4.56339940e-02f, -4.98358980e-02f, 3.20907049e-02f, 4.67787907e-02f, 6.84699342e-02f, 5.38174808e-03f, -3.51217836e-02f, 1.22003086e-01f, 5.88879688e-03f, 3.27855647e-02f, 8.10570493e-02f, 1.01310022e-01f, -1.34650603e-01f, 7.91561678e-02f, 6.52669743e-02f, -4.63745929e-02f, 2.14507878e-02f, -4.67546331e-03f, -5.51158264e-02f, 4.34746519e-02f, 6.35597631e-02f, -3.67527343e-02f, 6.47883937e-02f, -2.75425669e-02f, 2.29697134e-02f, -2.53308546e-02f, -8.01149085e-02f, 3.95825785e-03f, 2.28241295e-01f, 7.86832348e-02f, 3.18980291e-02f, 1.19187683e-03f, 3.98962870e-02f, -9.95491520e-02f, -4.83268946e-02f, 7.63782533e-03f, -5.82654700e-02f, 2.21902207e-02f, -2.34398022e-02f, 3.06100938e-02f, 3.02958414e-02f, 3.61237824e-02f },
    { 3.79776135e-02f, -6.16417862e-02f, 3.11166029e-02f, 7.98516646e-02f, 2.37292908e-02f, 2.18239836e-02f, 3.77462804e-02f, -1.00715540e-01f, -2.11839825e-02f, 1.59336589e-02f, -1.79022979e-02f, 8.99751112e-02f, -4.02797535e-02f, -1.52955139e-02f, -1.32042700e-02f, -4.86503206e-02f, 4.02824916e-02f, 4.97359596e-02f, 2.10343432e-02f, 4.33377502e-03f, -4.08231430e-02f, -1.79782808e-02f, -5.43906316e-02f, -4.04942818e-02f, -2.98812538e-02f, 1.53486831e-02f, -4.23372816e-03f, -4.90801632e-02f, -3.75360437e-02f, 1.48010463e-03f, 5.68554038e-03f, 8.53085443e-02f, 2.65872255e-02f, 4.16990370e-02f, 5.21274619e-02f, -3.78853641e-02f, 6.19197674e-02f, 4.97766957e-02f, -2.56051477e-02f, 3.41912955e-02f, 5.29092252e-02f, -2.27735583e-02f, -1.67483315e-02f, 1.05689475e-02f, 6.60345480e-02f, -1.64771415e-02f, -4.64635789e-02f, 5.42857759e-02f, -5.91313727e-02f, -4.57375385e-02f, 1.51786774e-01f, -4.16518562e-02f, -1.88915301e-02f, 2.13471660e-03f, 1.58690326e-02f, 3.22710350e-02f, -1.99165079e-03f, 1.31672306e-03f, 1.15464758e-02f, -1.65652521e-02f, 5.91612309e-02f, 5.16660213e-02f, -1.92527846e-02f, 3.95738408e-02f },
    { 4.66430448e-02f, -4.58353572e-02f, -1.89589635e-02f, 1.10991620e-01f, 1.36123925e-01f, -1.93903223e-02f, 2.58535147e-02f, 5.66869080e-02f, -1.28067043e-02f, -1.91241503e-02f, 2.38039289e-02f, 3.05785220e-02f, -1.10620052e-01f, 6.77264947e-03f, 3.06473561e-02f, -6.34583011e-02f, -2.49151643e-02f, -1.80480517e-02f, 2.30164956e-02f, -6.42383322e-02f, -8.84006098e-02f, -9.56066325e-02f, 7.99678341e-02f, -2.20249984e-02f, 4.88336496e-02f, 2.12163217e-02f, 5.38099743e-02f, 3.48282717e-02f, 5.69390655e-02f, 2.71563791e-02f, 2.44240835e-02f, -5.75686358e-02f, -6.94198394e-03f, -4.18148264e-02f, -1.20576203e-01f, 8.57579894e-03f, 3.98477446e-03f, -4.65836264e-02f, -4.39295545e-02f, 1.59637947e-02f, 6.30991720e-03f, 1.23471627e-02f, -4.81788553e-02f, -5.60554722e-03f, 3.98647506e-03f, -7.83677027e-03f, 2.22861059e-02f, 1.62654300e-03f, 2.14762650e-02f, 4.83038463e-02f, -1.91008449e-02f, 2.07979549e-02f, 4.25117798e-02f, -7.76139274e-03f, -4.17515822e-02f, -7.07724178e-03f, -2.14581937e-02f, 3.05536669e-02f, -1.40996762e-02f, -2.89102904e-02f, 4.49337326e-02f, 1.98175590e-02f, 6.65553212e-02f, -1.65536217e-02f },
    { 5.57488436e-03f, 1.50838485e-02f, 4.11506742e-02f, 1.22254491e-02f, 5.31942733e-02f, 3.78677398e-02f, -2.34031882e-02f, 1.96751207e-03f, -2.44396999e-02f, 6.86329678e-02f, 4.62179221e-02f, 1.35330155e-01f, -1.67715073e-01f, -3.08878329e-02f, -1.86269004e-02f, 5.42893168e-03f, -6.30021393e-02f, -3.21270078e-02f, 5.73997907e-02f, -2.46750694e-02f, 4.16075662e-02f, -5.96512556e-02f, -8.83144289e-02f, 5.18136211e-02f, -3.35769877e-02f, 2.87246779e-02f, 1.13645673e-01f, 1.75088961e-02f, -3.63740362e-02f, 3.90732959e-02f, -5.87025918e-02f, -8.76964554e-02f, -5.40011302e-02f, -3.44858915e-02f, -1.28035620e-01f, -3.92251201e-02f, 8.50025266e-02f, -3.37366648e-02f, 1.54104326e-02f, -6.03504479e-02f, -1.56115787e-03f, -5.96766509e-02f, -3.44523564e-02f, 5.41316941e-02f, -3.94623093e-02f, -4.86091264e-02f, 1.17865503e-02f, -6.07120283e-02f, 9.87992883e-02f, 4.27488610e-02f, 6.49432391e-02f, 2.53321826e-02f, 4.48716283e-02f, -1.75828882e-03f, 4.70956489e-02f, -1.57416612e-03f, -6.32403344e-02f, 3.50752585e-02f, 2.98158191e-02f, -4.15608622e-02f, 5.18958569e-02f, 1.84874795e-02f, 3.11650299e-02f, -2.80667786e-02f },
    { 4.56288271e-02f, -1.82427447e-02f, -2.86817038e-03f, -3.73582952e-02f, -4.14506085e-02f, 4.18887213e-02f, 1.51924882e-02f, -2.30887327e-02f, 6.02514222e-02f, 2.96762455e-02f, -3.09649073e-02f, -1.65618330e-01f, -7.20051974e-02f, 2.20883898e-02f, 7.54999788e-03f, -2.21028598e-03f, -5.86506864e-03f, 3.14774029e-02f, -3.44270207e-02f, -5.94207831e-03f, 6.57030791e-02f, -5.19572906e-02f, -3.01150903e-02f, 2.04539648e-03f, -1.53082591e-02f, -7.64761195e-02f, 1.23193629e-01f, -6.74093217e-02f, 1.94311272e-02f, 1.39178157e-01f, -2.13078316e-02f, 4.74481657e-02f, 7.17670470e-02f, -5.31626940e-02f, -1.52888075e-01f, -2.66378392e-02f, 8.42612535e-02f, 1.38873551e-02f, 6.47314489e-02f, -1.20895260e-04f, 6.64448515e-02f, 2.71467175e-02f, 4.38096337e-02f, -3.67058744e-03f, 4.98456061e-02f, 7.49139860e-02f, -4.26633507e-02f, -1.00909555e-02f, -7.38122175e-03f, 1.92352291e-02f, 1.33959904e-01f, -1.53396232e-03f, 4.91159894e-02f, -1.06642507e-02f, -5.11429794e-02f, -1.40827134e-01f, 1.95381884e-02f, -2.92827506e-02f, -2.69372053e-02f, 2.58717011e-03f, 3.93401645e-02f, 3.98476012e-02f, 4.26509455e-02f, -8.60727653e-02f },
    { 2.18520071e-02f, -1.53978672e-02f, 8.04563686e-02f, 3.08604538e-02f, -6.32725507e-02f, -3.84444408e-02f, 7.73615809e-03f, -6.71493169e-03f, -9.38049518e-03f, -2.73640957e-02f, 2.15869062e-02f, 5.18438034e-02f, 6.07304722e-02f, 1.89574286e-02f, -2.92948671e-02f, -9.71266106e-02f, -1.62701569e-02f, -2.01077224e-03f, 5.45448288e-02f, -1.60495937e-02f, 3.54544516e-03f, -3.17903459e-02f, -5.91389388e-02f, -1.35979401e-02f, 3.48820463e-02f, 3.42513919e-02f, 1.77045375e-01f, -3.26326825e-02f, 1.33237792e-02f, -3.32720801e-02f, -3.05586145e-03f, 3.63153666e-02f, -4.87619564e-02f, -2.43473016e-02f, -2.09101513e-01f, -6.40867352e-02f, 8.91931877e-02f, 2.21728049e-02f, -3.40921688e-03f, -4.25032675e-02f, 4.01853733e-02f, 2.73946337e-02f, 1.46143064e-02f, 4.18931246e-02f, 2.56701931e-02f, 6.73918501e-02f, -1.91361569e-02f, 7.51210153e-02f, 4.13088966e-03f, 1.90231036e-02f, -1.29054800e-01f, -2.92425435e-02f, -5.29735647e-02f, 2.52406746e-02f, 4.67513204e-02f, -1.57967612e-01f, -5.74517027e-02f, -3.59313861e-02f, 1.14648379e-02f, -3.53837386e-02f, 1.76183563e-02f, 4.29303236e-02f, 6.50362670e-02f, 6.83316365e-02f },
    { -3.33467610e-02f, 4.54228595e-02f, -5.12994081e-03f, 9.99945402e-03f, 1.29910372e-03f, -6.48796558e-02f, -2.98539009e-02f, -8.07459429e-02f, 3.87106687e-02f, -6.13396354e-02f, -8.28894041e-03f, 1.34790009e-02f, 1.13310507e-02f, 3.09024602e-02f, -4.95992042e-02f, -3.78342606e-02f, -3.01633496e-02f, -3.56930234e-02f, 7.97124803e-02f, 1.47372149e-02f, 1.75428037e-02f, -8.30434170e-03f, 2.28399946e-03f, 2.65966402e-04f, 6.30373806e-02f, -2.66553345e-03f, 5.94799593e-02f, 2.44190060e-02f, 6.14125803e-02f, 5.39225452e-02f, -6.48760125e-02f, -4.75888364e-02f, 4.01260257e-02f, 9.09245908e-02f, -5.96383549e-02f, -2.11518258e-02f, -1.87150575e-02f, 4.90474924e-02f, 4.63045612e-02f, 4.34071943e-02f, 7.38623738e-02f, 2.59416923e-03f, 2.83567328e-03f, 5.61876334e-02f, 5.03865741e-02f, -2.17941441e-02f, -1.45930676e-02f, -6.78713918e-02f, 4.71131392e-02f, 5.44247366e-02f, 1.01088770e-01f, 4.83769691e-03f, 3.56193818e-02f, 3.10597140e-02f, 7.71647366e-03f, 4.98650074e-02f, 1.48603348e-02f, -4.16560285e-02f, -1.80820227e-02f, 2.42481474e-02f, -3.57986577e-02f, -2.02496862e-03f, 5.97486533e-02f, 2.33353861e-02f },
    { -2.28139153e-03f, -7.53478194e-03f, 5.39701581e-02f, 7.43839592e-02f, 1.69292409e-02f, 2.26514135e-02f, -2.18928922e-02f, -1.10059022e-03f, -5.10278605e-02f, 5.33207832e-03f, 9.48855374e-03f, 4.16777749e-03f, 4.09947932e-02f, 5.20342439e-02f, 5.36733791e-02f, -1.91151109e-02f, -1.63143296e-02f, 8.72563794e-02f, 3.38482931e-02f, 5.95579334e-02f, 6.36635870e-02f, 1.57529116e-02f, -1.60224307e-02f, 3.25762504e-03f, -2.86336634e-02f, 1.76200513e-02f, 4.38843258e-02f, 5.08270301e-02f, 2.86034364e-02f, 2.99693160e-02f, -1.16562014e-02f, 1.13241740e-01f, -1.31216245e-02f, 3.00763417e-02f, 2.71868799e-03f, -2.59794686e-02f, 7.80519545e-02f, -1.23554431e-02f, 1.01221781e-02f, -4.05306276e-03f, -1.62597615e-02f, 5.75840287e-02f, -2.30718404e-02f, -2.21659020e-02f, 6.38370216e-02f, 3.61026288e-03f, -1.97199471e-02f, -3.64048146e-02f, -1.16154514e-02f, 4.48022932e-02f, -1.84408091e-02f, 1.19584296e-02f, -1.09447362e-02f, 6.05018139e-02f, -3.62890474e-02f, -2.76467092e-02f, 6.64564818e-02f, 2.22830120e-02f, -6.38943212e-03f, -8.05826485e-03f, 4.35289033e-02f, 6.50250465e-02f, 2.41388399e-02f, 5.97323962e-02f },
    { -6.55531511e-02f, -6.16922081e-02f, -5.68621010e-02f, 6.24615885e-03f, -3.62529350e-03f, 2.37226561e-02f, 3.58242020e-02f, -1.93863956e-03f, -4.26562037e-03f, 2.10386366e-02f, 4.41935398e-02f, -2.60681212e-02f, 7.68241808e-02f, 4.77501042e-02f, 3.95487174e-02f, 8.51258859e-02f, 6.61710575e-02f, -8.88332725e-02f, -3.46836932e-02f, 4.86647785e-02f, 1.09712683e-01f, 4.05504704e-02f, -2.57957820e-02f, 3.42218764e-02f, -4.02934812e-02f, 4.26842794e-02f, -1.86527241e-02f, 1.88090317e-02f, -1.00758327e-02f, -1.29192928e-02f, -2.73635406e-02f, -5.84898703e-03f, -6.99667335e-02f, 4.74495217e-02f, 9.98843089e-02f, 4.00807597e-02f, 4.10153084e-02f, 1.62067637e-02f, 4.60840994e-03f, -1.23643838e-02f, -4.39662524e-02f, 1.09684225e-02f, -2.02302132e-02f, -3.27461474e-02f, -5.76720573e-02f, 9.40043703e-02f, 8.32137093e-02f, -3.51227932e-02f, 1.64038148e-02f, 2.12474372e-02f, 9.65653881e-02f, -5.86912371e-02f, -4.34889346e-02f, -4.48651351e-02f, -2.05139983e-02f, 1.51411965e-01f, -5.06811589e-03f, 8.93957540e-02f, 1.06622148e-02f, -3.03997584e-02f, -9.02376417e-03f, 3.84825468e-02f, 1.28461709e-02f, 5.48941195e-02f },
    { 6.78606480e-02f, 2.38386113e-02f, 5.82361855e-02f, -1.61262359e-02f, -2.96950038e-03f, -5.04212454e-02f, 7.50310272e-02f, 1.19136535e-02f, 1.69287398e-02f, -1.20009542e-01f, 4.85437512e-02f, -5.56775331e-02f, 3.56182121e-02f, 6.28864989e-02f, 4.72539775e-02f, 5.11930510e-02f, -8.13839585e-03f, -2.78067850e-02f, 4.76005711e-02f, 7.38103315e-02f, 3.32330912e-02f, 3.90949510e-02f, 2.29963884e-02f, -7.18023926e-02f, -5.72562553e-02f, -2.25267559e-02f, -5.37048206e-02f, -4.04975265e-02f, -5.79433255e-02f, 4.26856838e-02f, 4.39531431e-02f, 6.30016327e-02f, -2.26329882e-02f, -4.90235500e-02f, -1.03155058e-02f, 6.79541053e-03f, 5.89919649e-02f, 4.26039137e-02f, -3.36802825e-02f, -4.69618067e-02f, 4.35798131e-02f, 5.77729829e-02f, -1.42770018e-02f, 7.07588419e-02f, -6.73137680e-02f, -4.31072488e-02f, -3.67319696e-02f, -2.44942736e-02f, -1.02432095e-01f, 2.79829912e-02f, 2.33572684e-02f, -2.80030984e-02f, -1.56337135e-02f, -1.96455009e-02f, -1.00992899e-02f, -4.11674753e-02f, 4.14160267e-02f, 5.17459214e-02f, 5.53170852e-02f, 7.08300248e-02f, 7.10308775e-02f, -3.20644788e-02f, -2.43839528e-03f, 4.98852842e-02f },
    { 2.43953709e-02f, 1.63553134e-02f, 2.06544846e-02f, 2.09466293e-02f, -4.86626811e-02f, 1.41724376e-02f, 4.66438420e-02f, 1.57365408e-02f, 1.36382133e-02f, -7.98883140e-02f, 4.05271649e-02f, 1.08385310e-01f, -4.60460857e-02f, -2.30770707e-02f, -1.56258587e-02f, 7.70972893e-02f, -1.10119991e-02f, 8.54240507e-02f, -1.05955238e-02f, 1.12206358e-02f, 4.98827212e-02f, -1.00849746e-02f, -1.26578465e-01f, -6.52963668e-02f, 4.66607474e-02f, 2.50556991e-02f, 9.20182392e-02f, 3.07961963e-02f, -2.98599713e-02f, 1.16421923e-01f, 3.87281328e-02f, -2.71956604e-02f, -8.21439549e-02f, 6.24760501e-02f, -1.00293219e-01f, -6.90649226e-02f, -1.36855533e-02f, -4.85726260e-02f, -1.01584392e-02f, 4.18183431e-02f, -5.76877687e-03f, 2.13740487e-02f, -1.68245938e-02f, -2.47772764e-02f, -5.73253967e-02f, 5.71502298e-02f, 7.35825822e-02f, -2.59632692e-02f, 1.03872597e-01f, 6.47530109e-02f, 1.41164601e-01f, 2.35239081e-02f, 4.94565181e-02f, 3.78879532e-02f, 6.98914751e-02f, 1.56244978e-01f, 1.27946008e-02f, 1.72987375e-02f, 3.24851610e-02f, -5.21343984e-02f, 5.81400702e-03f, -3.96558605e-02f, 6.12558844e-03f, 1.88464914e-02f },
    { -3.99855077e-02f, 5.04613407e-02f, 5.26862592e-02f, -6.58172043e-03f, 6.97335899e-02f, -1.82043277e-02f, 4.01825011e-02f, -2.00752988e-02f, -1.51598535e-03f, -3.76650877e-02f, -6.62688687e-02f, 3.98244001e-02f, -1.05209006e-02f, -1.44355083e-02f, -3.67334634e-02f, -3.38114202e-02f, 5.83594702e-02f, -1.39447451e-02f, -5.11956811e-02f, 4.63319235e-02f, -2.35263584e-03f, 8.55838209e-02f, -2.16386598e-02f, 4.24578786e-02f, 3.79045829e-02f, -5.32266721e-02f, 1.76677164e-02f, -4.93843108e-02f, 4.49599549e-02f, -2.35000253e-03f, -7.14167804e-02f, 1.25010461e-02f, 3.41996662e-02f, 2.71131806e-02f, -3.11362613e-02f, -1.44370226e-02f, 4.94103208e-02f, 5.81044219e-02f, 7.54426941e-02f, -1.84000749e-02f, -6.57040114e-03f, -2.67140865e-02f, -6.36256207e-03f, -2.75476556e-03f, 4.50564623e-02f, 1.95866339e-02f, 2.78070606e-02f, 3.51650417e-02f, -7.88904876e-02f, 5.01867943e-03f, -1.05679622e-02f, 6.45120740e-02f, 3.32947299e-02f, 2.26945691e-02f, -7.78583670e-03f, 3.01826689e-02f, -2.06849091e-02f, -6.81931973e-02f, 6.49018511e-02f, 5.34399301e-02f, 3.96322533e-02f, -1.32285003e-02f, 1.90761480e-02f, -1.63484607e-02f },
    { 7.92748481e-03f, 1.48853986e-02f, 6.30059391e-02f, 9.78544652e-02f, -1.96717344e-02f, -1.19994152e-02f, -2.68664993e-02f, 3.56939621e-02f, -4.26173694e-02f, 8.01609755e-02f, -3.57653946e-02f, -1.55349314e-01f, -1.08393535e-01f, -4.49661398e-03f, -1.81560554e-02f, 5.42400964e-02f, 7.78760295e-03f, 6.71456382e-02f, 3.33902389e-02f, 3.92026873e-03f, 7.20826676e-03f, -2.95517109e-02f, 3.71819995e-02f, -4.80067320e-02f, 5.59554957e-02f, -1.92397702e-02f, 7.23313615e-02f, 1.06381867e-02f, -4.72036302e-02f, 1.16333552e-01f, 4.94679362e-02f, -1.07762031e-02f, 3.33589390e-02f, 1.26000559e-02f, -1.12396263e-01f, -8.01128298e-02f, 4.10875212e-03f, 7.18805715e-02f, -1.33284107e-02f, 5.69724478e-02f, -6.13270402e-02f, -1.02131593e-03f, 7.97179341e-03f, 7.79178813e-02f, 6.14638664e-02f, -8.08002129e-02f, 5.26818037e-02f, 1.15809366e-02f, -1.69397548e-01f, 6.20243549e-02f, 7.10768923e-02f, 2.95147281e-02f, 5.83138764e-02f, 4.67453077e-02f, 5.31817861e-02f, 5.92547506e-02f, 2.99605373e-02f, -9.83161014e-03f, -4.88053113e-02f, -2.30153948e-02f, -2.46163867e-02f, -3.50839607e-02f, -1.48981332e-03f, -5.34736477e-02f },
    { -4.52842489e-02f, 6.43584356e-02f, 3.89366522e-02f, -7.31235966e-02f, 6.83859810e-02f, 2.14499962e-02f, 5.31999506e-02f, 5.96785694e-02f, -7.20958114e-02f, 1.12343855e-01f, 2.18185759e-03f, 5.17872744e-04f, -5.41400425e-02f, 5.23479320e-02f, -6.20421395e-02f, -1.34486809e-01f, -2.42705029e-02f, -2.69356780e-02f, 5.48555739e-02f, -3.04332860e-02f, -4.64967936e-02f, 2.93680560e-02f, -6.44957125e-02f, -1.61857679e-02f, 4.11979407e-02f, -4.11327705e-02f, 2.47450285e-02f, 3.31859589e-02f, -2.12383345e-02f, 7.02634454e-02f, -5.83892642e-03f, -9.74506363e-02f, -9.19977110e-03f, 4.85530086e-02f, -3.18585224e-02f, 5.33423722e-02f, 5.13583943e-02f, -1.49736023e-02f, -2.10469589e-02f, -6.79239444e-03f, -4.43878584e-02f, -4.81969230e-02f, 5.45812473e-02f, 5.10529913e-02f, 1.04243187e-02f, -5.14336005e-02f, 6.85139224e-02f, 9.72810294e-03f, -2.10716873e-01f, 2.89363824e-02f, 1.37684196e-01f, 4.71954830e-02f, 6.76737055e-02f, -4.99831252e-02f, -2.80478504e-02f, -1.46676257e-01f, 3.31920087e-02f, -1.80782247e-02f, 1.70453601e-02f, -3.41972448e-02f, 5.87991513e-02f, 8.23899731e-03f, 5.94134964e-02f, 2.62746103e-02f },
    { -4.20054272e-02f, 4.21379656e-02f, -6.18434418e-03f, 3.44858915e-02f, -5.17469868e-02f, -3.35501274e-03f, 3.76753480e-04f, -1.46126777e-01f, 2.23997273e-02f, -2.82901675e-02f, 7.54878111e-03f, -1.03398442e-01f, -3.58973779e-02f, -6.88173529e-03f, -6.72309324e-02f, 5.85571751e-02f, -7.69488290e-02f, 8.47143605e-02f, 6.10053055e-02f, -1.04287630e-02f, 6.71159551e-02f, 5.38454056e-02f, -1.00835413e-01f, -8.54826644e-02f, -4.38472293e-02f, 2.30097901e-02f, 2.73187477e-02f, 7.13203242e-03f, -1.39717932e-03f, 7.02020675e-02f, -6.42865198e-03f, 9.95735303e-02f, 6.76181316e-02f, 2.02729180e-03f, -2.23354064e-02f, -4.24569137e-02f, 7.15370243e-03f, 2.22760383e-02f, 5.83235249e-02f, -2.12730803e-02f, -1.75599903e-02f, -3.53005491e-02f, -2.11493019e-03f, -4.13283296e-02f, 6.59805089e-02f, -8.92013237e-02f, 1.58457924e-02f, -3.37246023e-02f, -3.18041071e-02f, -2.44309586e-02f, 3.86573263e-02f, 1.73464813e-03f, 4.78964970e-02f, -6.10734057e-03f, 1.31412772e-02f, -1.04788832e-01f, -4.09227684e-02f, -2.20462605e-02f, -7.39049986e-02f, -3.93442251e-02f, 3.98227088e-02f, -1.29403025e-02f, -1.76872201e-02f, 4.14459631e-02f },
    { -3.86944376e-02f, 1.59648638e-02f, 8.39174539e-02f, 1.47533938e-02f, -5.27151339e-02f, -5.56754544e-02f, -3.83171812e-02f, 4.51918272e-03f, 2.13807076e-02f, 1.04110874e-01f, -7.01529533e-02f, -1.75723508e-02f, -1.40037492e-01f, 3.43312994e-02f, 6.15529492e-02f, -7.54239932e-02f, 5.31672267e-03f, 4.42039222e-02f, -2.50468515e-02f, -3.25277857e-02f, -1.02694169e-01f, -4.76620197e-02f, 5.69541380e-02f, 5.16156815e-02f, -1.65481977e-02f, -3.45946327e-02f, 7.92444646e-02f, 3.71175446e-02f, -3.52127925e-02f, 5.05699813e-02f, 2.04758737e-02f, 3.80830057e-02f, -5.60208485e-02f, 1.20273177e-02f, -1.16853341e-01f, 1.20916307e-01f, -8.35672989e-02f, -3.19159552e-02f, 4.43917029e-02f, 3.40948701e-02f, -5.27933389e-02f, 2.78469026e-02f, -6.39319494e-02f, 1.24379061e-02f, 2.35146619e-02f, -2.17136089e-02f, -3.91197205e-02f, -9.14353877e-02f, -8.00749101e-03f, 1.92662864e-03f, 1.82372574e-02f, -2.51444373e-02f, -2.35951599e-02f, 3.17547359e-02f, -1.58114396e-02f, -1.05042554e-01f, -4.80133928e-02f, -5.57637699e-02f, -1.00030182e-02f, -1.43343434e-02f, -2.21574362e-02f, 2.09423807e-02f, 6.61493242e-02f, -1.98091939e-02f },
    { -4.20065708e-02f, -2.98141818e-02f, -4.14443687e-02f, 6.39668778e-02f, -4.85259369e-02f, -3.97618078e-02f, 2.16251127e-02f, 3.04537942e-03f, 2.12030783e-02f, 5.10150418e-02f, 3.10230516e-02f, -1.16004208e-02f, -1.12360626e-01f, -8.02108273e-02f, 4.06271629e-02f, -6.80514053e-02f, -1.49707105e-02f, 5.27982637e-02f, 3.08364127e-02f, 5.46245314e-02f, 4.54350840e-03f, -5.05655780e-02f, -1.09969482e-01f, 3.41714323e-02f, 6.41169632e-03f, -3.91863547e-02f, 1.98326400e-03f, -4.32995334e-02f, -1.86451450e-02f, 5.53637072e-02f, -4.56079282e-02f, 3.32280658e-02f, 6.14937320e-02f, -9.49547254e-03f, -2.43139546e-02f, -3.71911488e-02f, -6.95316866e-02f, 1.53891193e-02f, 4.63954397e-02f, 1.61231067e-02f, -5.83724380e-02f, -6.45652935e-02f, 2.15364862e-02f, 4.97278385e-02f, -1.99941937e-02f, -6.10338673e-02f, 3.58539708e-02f, -4.88794707e-02f, -2.38311514e-02f, 2.31916923e-02f, 2.16900349e-01f, 3.35505325e-03f, -9.88584757e-03f, 5.30071184e-02f, -2.41267886e-02f, -5.35167865e-02f, -2.44389437e-02f, -4.47333977e-02f, 4.20188904e-02f, 5.08730598e-02f, -4.57352735e-02f, -5.70925772e-02f, 6.55643642e-03f, -4.75666346e-03f },
    { -4.76662107e-02f, 7.91851133e-02f, 2.72356253e-02f, 4.46117334e-02f, -2.91992389e-02f, 3.09900213e-02f, 3.48124355e-02f, 9.91160609e-03f, 2.61935629e-02f, 7.98093751e-02f, 4.58324999e-02f, -1.20912261e-01f, -5.03580607e-02f, -8.60740244e-02f, 2.05609743e-02f, -7.41232634e-02f, 1.95546318e-02f, -1.82014368e-02f, -3.49016562e-02f, -3.50526012e-02f, -4.60317656e-02f, 2.35806573e-02f, -5.50925694e-02f, 4.02532220e-02f, -7.27235433e-03f, 4.83360924e-02f, 1.06342435e-01f, -4.11458760e-02f, -5.99428639e-02f, 1.28738210e-01f, 7.31490776e-02f, 4.94433604e-02f, 5.41318282e-02f, -4.92891949e-03f, -9.04645026e-02f, -4.09772247e-02f, 2.78755911e-02f, 1.92300379e-02f, -4.79973517e-02f, 7.55240023e-02f, 1.54338861e-02f, 2.14987416e-02f, -2.15876121e-02f, -2.75413077e-02f, -1.24711050e-02f, 8.15835744e-02f, -1.86580718e-02f, -2.82337684e-02f, -4.34140004e-02f, 7.20526576e-02f, 2.64309049e-01f, 3.30594517e-02f, 4.89979982e-02f, -4.48192917e-02f, 2.57287845e-02f, -1.15780547e-01f, -6.93522021e-02f, -2.23803688e-02f, -3.27358060e-02f, -2.56524608e-03f, -4.57764007e-02f, 4.06425260e-02f, -2.01658402e-02f, -4.04103659e-02f },
    { 1.09529085e-02f, 1.12177040e-02f, 2.65819635e-02f, 8.12743753e-02f, -1.26451766e-02f, -5.02172187e-02f, 6.14986115e-04f, -2.26145372e-01f, 4.37286086e-02f, -1.08766414e-01f, -2.56358869e-02f, 4.73972037e-03f, 1.29076406e-01f, -5.01866564e-02f, -5.69430999e-02f, -1.44298837e-01f, 4.16988023e-02f, 5.74595481e-02f, 6.47302717e-02f, -2.12649740e-02f, -7.67206624e-02f, -7.89050981e-02f, 2.01437678e-02f, 4.74091135e-02f, -4.00523432e-02f, 4.05211598e-02f, 9.28077996e-02f, -1.68475900e-02f, -3.43258306e-02f, 6.52191564e-02f, 4.26979698e-02f, 5.37637211e-02f, -9.68861114e-03f, 5.69029115e-02f, -1.67757913e-01f, -9.85019058e-02f, 2.08883174e-02f, 2.48018410e-02f, -2.60301530e-02f, -3.65492478e-02f, -5.77647611e-02f, 4.07002158e-02f, -5.86647205e-02f, 4.11735661e-02f, -1.56196738e-02f, 1.16370423e-02f, 2.22770963e-02f, 1.08381554e-01f, 2.29880977e-02f, 4.81461436e-02f, 1.69451386e-01f, 6.05777949e-02f, -1.50857093e-02f, 2.33216807e-02f, 2.23042807e-04f, -2.42793187e-01f, -3.78151541e-03f, 3.98648577e-03f, 7.26579204e-02f, 2.32306551e-02f, 7.43219815e-03f, 1.05081117e-02f, -6.97190687e-02f, -4.96852435e-02f },
    { -5.38482182e-02f, -1.89601686e-02f, 3.69887389e-02f, 2.45235246e-02f, -5.73451109e-02f, -2.36875508e-02f, 5.51476590e-02f, -1.85798123e-01f, 5.06283529e-03f, 7.06063658e-02f, 4.17312309e-02f, -1.68215349e-01f, 1.86954569e-02f, -8.54038633e-03f, 3.58173251e-02f, -6.51080608e-02f, 9.85023566e-04f, -2.31656693e-02f, 5.72121404e-02f, 1.95817538e-02f, -1.01724505e-01f, 1.68817677e-02f, 1.14247359e-01f, -2.36939788e-02f, -4.63147927e-03f, 6.90775439e-02f, 1.60962880e-01f, -3.47977430e-02f, -4.84814122e-02f, 1.37240782e-01f, -5.08965515e-02f, -6.02891669e-02f, 4.37434316e-02f, 2.65851952e-02f, -2.98727397e-02f, 1.34278536e-01f, -7.71949813e-02f, -3.05573754e-02f, -2.29495093e-02f, -4.25166599e-02f, 7.03779310e-02f, 6.91984221e-02f, -3.82666402e-02f, -3.11102793e-02f, 2.15706229e-02f, -1.86064821e-02f, 1.48397274e-02f, -3.28301117e-02f, -6.53268769e-02f, -3.33032049e-02f, 1.31272987e-01f, -2.80394033e-02f, 4.42239046e-02f, -7.69099046e-04f, -4.67089843e-03f, -8.25330690e-02f, 4.06334089e-04f, -5.47321215e-02f, -2.47954745e-02f, 3.94363366e-02f, 5.41797541e-02f, 4.14029881e-02f, 2.79151313e-02f, -3.23928846e-03f },
    { -2.02989448e-02f, 5.57594560e-02f, 5.83598651e-02f, 1.11870486e-02f, 1.05469665e-02f, 5.27156927e-02f, 6.15039654e-02f, 1.79573093e-02f, 7.15493187e-02f, -4.67264280e-02f, 3.90635245e-02f, -2.81300154e-02f, 7.01063275e-02f, 1.36546197e-03f, -4.72845361e-02f, 1.37187811e-02f, 4.51051537e-03f, 4.12677079e-02f, -2.64372993e-02f, -2.35997699e-02f, -5.14437146e-02f, 1.88434322e-04f, -3.05071827e-02f, 3.80217992e-02f, 3.58420983e-02f, -2.94548273e-02f, -4.74625342e-02f, 1.52529241e-03f, -5.01887947e-02f, 2.62729730e-02f, 6.84362501e-02f, 4.06461954e-02f, 7.94944987e-02f, 1.93978939e-02f, 6.76940233e-02f, -2.07743738e-02f, 3.58732045e-02f, -4.08942923e-02f, 4.32708897e-02f, -2.76220627e-02f, -2.35849638e-02f, 6.64719343e-02f, 2.16064472e-02f, 3.58468592e-02f, -1.91447195e-02f, 4.99644391e-02f, -2.87451129e-02f, -1.89332850e-02f, -7.78292213e-03f, -5.94446212e-02f, 6.89177308e-03f, -4.66054194e-02f, 1.89952683e-02f, 6.27022386e-02f, 4.82860133e-02f, 1.31609924e-02f, -1.54785141e-02f, 1.03045711e-02f, 5.74234128e-02f, 5.76065369e-02f, 7.61513487e-02f, 5.17211296e-02f, 8.31888895e-03f, -4.41645533e-02f },
    { 4.68591638e-02f, 2.09956598e-02f, 2.69369106e-03f, -4.38565761e-02f, 1.20173264e-02f, 5.48352338e-02f, -3.36688347e-02f, 6.22982197e-02f, -3.65170441e-03f, -5.71111180e-02f, 6.90006539e-02f, -1.72878280e-02f, 6.84258714e-02f, -8.36125296e-03f, -4.46266159e-02f, 1.45433461e-02f, 3.90105993e-02f, -8.19694772e-02f, -2.85310578e-02f, 6.25443906e-02f, -2.40025157e-03f, 2.90472116e-02f, 2.12739967e-02f, 3.81139219e-02f, 2.43277065e-02f, -1.59579441e-02f, 2.40937714e-02f, 1.22654475e-02f, 2.32740939e-02f, 3.52560612e-03f, 6.06482625e-02f, -4.01005819e-02f, -4.40033413e-02f, -5.19187450e-02f, 1.57176763e-01f, -1.37271332e-02f, 1.02575012e-01f, -5.95654882e-02f, 2.83664614e-02f, -8.28781724e-03f, 6.34441674e-02f, -1.50753977e-02f, 1.09535260e-02f, -3.37787904e-02f, 3.78847159e-02f, 2.80702859e-02f, -7.73263257e-03f, -3.38582210e-02f, 3.08176391e-02f, -1.80806220e-02f, 5.33200949e-02f, 2.40354370e-02f, 4.64390069e-02f, -5.10393120e-02f, 9.89221130e-03f, 1.36735097e-01f, 3.15757021e-02f, 9.39735118e-03f, 1.72786321e-02f, -4.44586277e-02f, 7.03154132e-02f, 5.13197333e-02f, 6.54298812e-02f, -2.20043268e-02f },
    { 4.50461656e-02f, 3.22254114e-02f, -1.59266461e-02f, -1.18067972e-01f, -1.45890657e-02f, 3.81191596e-02f, 1.12216203e-02f, -6.78624660e-02f, 3.06659029e-03f, -2.85777487e-02f, 5.36279157e-02f, -8.31268951e-02f, -3.47093344e-02f, 5.08845365e-03f, 1.20977499e-02f, -4.14243266e-02f, 1.51262637e-02f, -5.38644232e-02f, 3.20158266e-02f, 6.37820363e-02f, 4.36510742e-02f, 1.50343999e-02f, 3.65935965e-03f, -6.29418269e-02f, 6.13279380e-02f, 7.64965313e-03f, -2.30803974e-02f, -1.70202497e-02f, 4.37846705e-02f, 3.12789832e-03f, -7.92625826e-03f, -2.42432989e-02f, -3.48579958e-02f, -7.25772872e-04f, 1.01489443e-02f, -1.31066158e-01f, 9.65480413e-03f, 6.43736050e-02f, -1.13664316e-02f, -1.49115431e-03f, 2.42091827e-02f, 1.10572875e-02f, 4.75241467e-02f, 7.98502862e-02f, -7.20318258e-02f, -4.63361032e-02f, 6.52199313e-02f, 3.48726586e-02f, -7.46700028e-03f, 3.50566432e-02f, 1.03463978e-01f, -5.66112064e-02f, -5.13346158e-02f, -4.81314287e-02f, 3.36478353e-02f, 1.29627320e-03f, 1.83084086e-02f, -9.14875884e-03f, 1.39715960e-02f, 4.62615117e-02f, -2.32875198e-02f, -5.16318530e-02f, 7.24686235e-02f, -4.07416411e-02f },
    { -8.31804296e-04f, -5.42200282e-02f, 4.28755358e-02f, 5.27691208e-02f, 6.05566874e-02f, -2.71623805e-02f, 1.24357969e-01f, 4.32047583e-02f, 1.43190883e-02f, -8.16786662e-02f, -1.55922659e-02f, 6.51939139e-02f, -4.54205982e-02f, 8.05037916e-02f, -2.06533372e-02f, -1.49257598e-03f, -3.88333909e-02f, 1.82263944e-02f, -7.03098578e-03f, 5.72375134e-02f, -3.14813182e-02f, 6.37052394e-03f, -1.13071084e-01f, -1.69568546e-02f, -4.59753349e-02f, 1.74735989e-02f, 5.74303269e-02f, 5.39134108e-02f, 6.76330477e-02f, 8.45773984e-03f, 4.01588120e-02f, 1.08558193e-01f, -1.62133016e-02f, -3.03769521e-02f, -5.60641550e-02f, 4.72917035e-03f, -4.80361171e-02f, 5.45957275e-02f, 1.88744944e-02f, 7.15119392e-02f, 6.28996640e-03f, -1.85602792e-02f, -6.79036081e-02f, 9.98468995e-02f, -2.18446292e-02f, 6.13980591e-02f, -1.70547143e-02f, 2.48841178e-02f, 1.05980642e-01f, 3.49594653e-02f, 3.07610538e-02f, 2.43381318e-02f, -3.81359942e-02f, -3.07224579e-02f, -8.63382686e-03f, 9.51511785e-03f, 1.88144818e-02f, 1.24750622e-02f, 6.38863891e-02f, -9.89423227e-03f, 2.61406749e-02f, -6.61337450e-02f, 4.71428856e-02f, -5.07901460e-02f },
    { 4.67590131e-02f, -6.58495817e-03f, 7.55470479e-03f, -8.37246552e-02f, 5.91716878e-02f, -2.90559214e-02f, -1.90341696e-02f, -4.39654663e-02f, 6.49587438e-02f, -1.57177314e-01f, 1.26957791e-02f, 5.06396554e-02f, -5.66319413e-02f, 7.94518963e-02f, 5.87389544e-02f, 5.15888222e-02f, -3.46639045e-02f, 5.56236841e-02f, 4.53364942e-03f, -4.45593186e-02f, 8.54888484e-02f, 4.03587334e-02f, -1.03827991e-01f, -5.14246151e-02f, 3.18079628e-02f, -3.51014510e-02f, 7.68552497e-02f, -6.31245002e-02f, -2.03701742e-02f, -8.51265565e-02f, 4.73703742e-02f, 9.78265405e-02f, 2.99551226e-02f, 8.62052198e-03f, -1.70057956e-02f, -6.55216053e-02f, 3.06330211e-02f, -2.00342499e-02f, -3.19863707e-02f, 3.61318067e-02f, -3.67610180e-03f, -3.66731025e-02f, 4.66794409e-02f, 2.51317788e-02f, 2.34689452e-02f, -4.84206667e-03f, 4.41243351e-02f, 2.24349499e-02f, 8.83107912e-03f, 1.04495669e-02f, -8.94624442e-02f, 1.55415153e-02f, -1.57384842e-03f, 1.72001049e-02f, 5.83594758e-03f, 4.14588414e-02f, -6.72915066e-03f, 3.46386768e-02f, 4.40917574e-02f, -4.71480899e-02f, 4.04744297e-02f, -1.84174012e-02f, 5.00035658e-02f, -7.31216222e-02f },
    { -6.94038793e-02f, 1.33855594e-03f, 6.06655926e-02f, 6.19955435e-02f, 2.38961075e-02f, -6.01481497e-02f, 4.18982003e-03f, 1.11474544e-01f, -4.55244891e-02f, 1.74805522e-02f, -5.46313412e-02f, -7.43173249e-03f, -1.02544315e-02f, 3.58645320e-02f, 2.18415484e-02f, 6.61650524e-02f, 1.84590623e-04f, 3.36628817e-02f, 9.80725661e-02f, -3.55367512e-02f, 6.63897321e-02f, -3.34570976e-03f, 6.13326132e-02f, -5.04008867e-02f, 1.63350962e-02f, -3.10731977e-02f, -1.56137152e-02f, -3.33627239e-02f, 2.35516299e-02f, 3.39087062e-02f, 7.47791082e-02f, 1.85584072e-02f, 5.80483936e-02f, -2.70308331e-02f, 3.62254418e-02f, 5.66463731e-02f, 2.10232008e-03f, 7.83053488e-02f, -8.42299219e-03f, 5.51921390e-02f, -4.39093448e-04f, -4.71664034e-02f, 1.96947320e-03f, 8.29954352e-03f, -3.48963961e-02f, 3.52726132e-02f, -4.65790043e-03f, -5.56870084e-03f, -6.28464445e-02f, 5.28532378e-02f, -1.56166419e-01f, -1.97252841e-03f, -3.81819829e-02f, 7.02733546e-02f, 5.89765757e-02f, 1.89702362e-02f, 4.61556949e-03f, 2.20851973e-02f, -7.13867024e-02f, 3.27287950e-02f, 7.54946321e-02f, -9.15540382e-02f, 7.34905675e-02f, -2.29184739e-02f },
    { -2.92689335e-02f, 4.89680022e-02f, -1.38433259e-02f, -2.31564511e-03f, 3.78979323e-03f, 4.09746170e-03f, 5.60612278e-03f, 1.46331564e-01f, -2.67877132e-02f, 8.23277831e-02f, -4.50295024e-02f, -8.68219435e-02f, -6.91308826e-03f, -2.96981297e-02f, -4.82512340e-02f, -8.72028247e-02f, -1.58392638e-02f, -2.81886160e-02f, 7.78825060e-02f, -7.36439647e-03f, -7.70112574e-02f, -6.48313612e-02f, 5.16204499e-02f, 5.75078614e-02f, 3.91410924e-02f, 5.30822622e-03f, -7.51257688e-02f, -1.04866512e-02f, 1.09379797e-03f, 8.11236501e-02f, 7.81730488e-02f, -1.01427965e-01f, 2.78494135e-02f, 9.77480337e-02f, -5.22692092e-02f, 5.79282083e-02f, -1.23792058e-02f, 1.83391348e-02f, 1.49819429e-03f, -2.86459140e-02f, -3.23037468e-02f, -4.70460393e-02f, -2.53230054e-02f, -8.68282374e-03f, -4.26380001e-02f, 5.00067547e-02f, -2.79744156e-02f, 2.04319488e-02f, -2.00410724e-01f, 6.60873950e-02f, 1.26811877e-01f, -3.36569101e-02f, 1.03025092e-02f, -7.68504059e-03f, 5.76489326e-03f, -2.09612489e-01f, 5.42066842e-02f, -5.54113723e-02f, 2.45802067e-02f, -6.58623502e-03f, 4.11717370e-02f, 2.14600507e-02f, 4.90909331e-02f, -2.10709479e-02f },
    { 7.42082903e-03f, 5.60754770e-03f, -6.23088442e-02f, 9.53715853e-03f, -5.04718684e-02f, 2.32712217e-02f, 6.43710867e-02f, -2.10194498e-01f, 1.94753669e-02f, -1.03183631e-02f, -5.83068207e-02f, 3.60845551e-02f, 2.09719110e-02f, -3.31490338e-02f, 8.24833196e-03f, -1.63120367e-02f, -5.46903759e-02f, -2.34437790e-02f, -1.34732006e-02f, -3.65468711e-02f, 1.39527796e-02f, 4.23669890e-02f, -6.30324036e-02f, -5.23457602e-02f, -5.07192835e-02f, -2.26788921e-03f, 2.27127243e-02f, -8.50719051e-04f, -5.03362045e-02f, 1.35731876e-01f, 5.79816774e-02f, 4.51013446e-02f, 5.49028888e-02f, 9.13643464e-02f, -3.66407000e-02f, -3.32236756e-03f, 1.39456633e-02f, -1.45326704e-02f, 6.41320422e-02f, 5.75134717e-02f, 2.59621330e-02f, -3.60075869e-02f, -1.01313628e-02f, -5.13553284e-02f, -4.89278734e-02f, -4.36165221e-02f, 4.56993729e-02f, -1.76864043e-02f, -6.62428141e-02f, -1.58849582e-02f, 5.19450270e-02f, -7.18551269e-03f, 6.04781043e-03f, 2.62643211e-02f, 3.92777026e-02f, -1.32530466e-01f, 8.21424499e-02f, -4.68084998e-02f, -1.30599001e-02f, -6.57659769e-02f, 5.55844009e-02f, -2.51468886e-02f, -4.37544473e-02f, 4.04191343e-03f },
    { 4.42107394e-03f, 3.76098044e-02f, 2.53775008e-02f, 2.64051445e-02f, -2.52124406e-02f, 1.42517667e-02f, 2.59543974e-02f, -8.45196769e-02f, 3.57485749e-02f, 1.43632099e-01f, -3.97801548e-02f, -2.75183562e-03f, -1.78061664e-01f, -2.12098528e-02f, -2.07604524e-02f, -9.45171341e-02f, -8.84478074e-03f, 5.57166673e-02f, 2.04610582e-02f, 7.26968283e-03f, -8.18419177e-03f, 9.99598019e-03f, 1.17189093e-02f, 2.00548582e-02f, -4.93847094e-02f, -6.06988035e-02f, 9.32352394e-02f, 4.39097695e-02f, -3.29010226e-02f, 2.05177106e-02f, 2.02171169e-02f, 5.94168976e-02f, -2.96237376e-02f, -1.29015464e-02f, -8.51904452e-02f, 1.01894088e-01f, 2.98227812e-03f, -3.30762081e-02f, 2.20849607e-02f, 2.24088766e-02f, -2.20157951e-02f, 1.68622397e-02f, 6.38119578e-02f, 7.09570721e-02f, 9.55167226e-03f, 5.50915347e-03f, 1.57988016e-02f, 4.61986326e-02f, -3.09372954e-02f, -2.34244708e-02f, 9.49878618e-02f, 3.58521491e-02f, 2.72147954e-02f, 8.44131038e-03f, -1.16955703e-02f, -8.64291340e-02f, -3.26354429e-02f, -9.51150991e-03f, -2.61197854e-02f, -4.08356413e-02f, 7.81766772e-02f, 5.39967157e-02f, 1.40390201e-02f, 4.53483351e-02f },
    { 1.66954771e-02f, 2.42740978e-02f, 1.28622102e-02f, 7.52085075e-02f, -5.74995093e-02f, 4.32654545e-02f, 1.78602617e-02f, -6.91157654e-02f, -8.40315744e-02f, -8.29775468e-04f, -6.93295002e-02f, 3.82880047e-02f, -7.14506879e-02f, 7.92999715e-02f, 1.24875633e-02f, 4.24248315e-02f, -3.45718488e-02f, -1.22237555e-03f, 6.06516190e-02f, 8.02433938e-02f, 7.25223497e-02f, -2.13626623e-02f, -1.60779402e-01f, 2.15536412e-02f, -4.64066723e-03f, -3.98214050e-02f, 4.16752845e-02f, 2.34043109e-03f, -1.47058899e-02f, 1.52441859e-01f, 3.10205668e-02f, -6.90687373e-02f, -3.28699313e-02f, 1.86099168e-02f, 5.57679757e-02f, -5.23350760e-02f, -2.72166263e-02f, -2.15443633e-02f, 5.83580546e-02f, 1.38364946e-02f, -3.84527855e-02f, 3.52501199e-02f, -7.19899833e-02f, 4.27984493e-03f, 2.19149143e-02f, 2.19211802e-02f, 8.48379210e-02f, -7.45120570e-02f, 1.03500210e-01f, -3.27695138e-03f, 9.05684158e-02f, -2.47701965e-02f, -4.16483209e-02f, 1.61507484e-02f, 2.44272384e-03f, -5.96055128e-02f, -2.04504337e-02f, 3.41063738e-02f, -4.76299115e-02f, 4.87695709e-02f, 1.80917943e-03f, -5.49542941e-02f, 1.23015968e-02f, 4.14770618e-02f },
    { 6.67105243e-03f, 1.57480370e-02f, -8.94033723e-03f, 9.38252211e-02f, 5.66642769e-02f, 9.84425172e-02f, -1.48885499e-03f, 1.98598132e-02f, 1.26013756e-02f, 7.92761445e-02f, 7.83711113e-03f, -1.83577597e-01f, -6.97549954e-02f, 3.82067002e-02f, -4.20831256e-02f, 7.98632875e-02f, 3.40883248e-02f, -4.90552783e-02f, 1.00101128e-01f, 3.04144621e-03f, 4.31934074e-02f, 3.76857445e-02f, -4.29505855e-02f, 5.15849106e-02f, 5.13451770e-02f, 5.75209558e-02f, 1.16023801e-01f, 5.92501946e-02f, 5.45687228e-02f, 1.23239808e-01f, 8.18499923e-02f, -2.67255884e-02f, -2.80958675e-02f, -3.43860760e-02f, -1.35016635e-01f, -9.68905352e-03f, 2.66928282e-02f, 1.60189737e-02f, 1.98043697e-02f, 7.65230507e-03f, 3.43419462e-02f, 3.88878286e-02f, 4.70652394e-02f, -1.80884339e-02f, -4.27152403e-02f, -6.19701855e-03f, -6.29576668e-03f, -5.29004913e-03f, 5.22368513e-02f, 1.84585657e-02f, 1.42331868e-01f, 2.16350388e-02f, -4.45911363e-02f, 1.81077179e-02f, -8.59803241e-03f, -2.60066669e-02f, -2.24919152e-03f, 3.59157920e-02f, -5.83909713e-02f, 8.38220716e-02f, 4.86245826e-02f, 7.91897625e-02f, 5.20848371e-02f, -9.98712610e-03f },
    { -5.29327895e-03f, -3.38888876e-02f, 4.66657383e-03f, -8.42966978e-03f, -3.96435298e-02f, -6.19430654e-02f, 1.25378557e-03f, -2.39898358e-02f, -3.61396335e-02f, -3.67544070e-02f, 3.92420404e-02f, 1.55400366e-01f, 5.13255373e-02f, -3.38382460e-02f, -1.68450512e-02f, -6.64388621e-03f, 5.76987006e-02f, -1.35590196e-01f, 7.09291324e-02f, 5.50199188e-02f, 7.38783926e-02f, 4.66535650e-02f, -1.09617904e-01f, 6.05976880e-02f, 5.23684025e-02f, -3.88247930e-02f, 1.51494205e-01f, -1.32494019e-02f, -2.29182877e-02f, 2.41361763e-02f, -4.54281345e-02f, -6.68315515e-02f, 5.18030412e-02f, 9.11397918e-04f, -1.12813115e-01f, -1.39878839e-01f, 6.93912059e-02f, -5.49860895e-02f, -1.28294062e-02f, 4.63309251e-02f, 4.03269120e-02f, -6.53733164e-02f, -2.59148460e-02f, -7.12771085e-04f, 2.49243416e-02f, -4.69533801e-02f, -6.82363212e-02f, -1.68603845e-02f, 1.72969237e-01f, 3.72989476e-02f, 3.14607993e-02f, 5.80427647e-02f, 5.34077063e-02f, -5.54248914e-02f, -5.39278053e-02f, -8.11154693e-02f, 7.06666857e-02f, -5.00249490e-02f, 6.65175542e-03f, 2.17747074e-02f, -1.03859641e-02f, -1.13018975e-02f, -1.91059355e-02f, -6.42474890e-02f },
    { -5.50498366e-02f, -1.67382006e-02f, 2.27295589e-02f, -1.60207674e-02f, 7.57963881e-02f, -6.71173707e-02f, -7.01838210e-02f, -4.47062366e-02f, 4.64179926e-02f, -4.69354354e-02f, 5.83088137e-02f, -5.58132455e-02f, -9.20425653e-02f, 7.55929351e-02f, -1.00598559e-02f, -6.50788890e-03f, 5.16316015e-03f, -2.20610537e-02f, 4.41513918e-02f, -3.30337696e-02f, 1.04398943e-01f, -6.49381243e-03f, -2.96796672e-02f, 1.18187862e-02f, -2.55888142e-03f, 1.95777901e-02f, 1.05091885e-01f, 2.18704585e-02f, 2.04154793e-02f, 2.19190419e-02f, -3.24376929e-03f, -6.84437081e-02f, 2.44073775e-02f, 3.64591703e-02f, -1.79440901e-02f, 4.12026979e-03f, -8.80349204e-02f, 3.90421040e-02f, -2.63454784e-02f, -2.88582873e-02f, 1.36953676e-02f, -2.58828923e-02f, 1.71861406e-02f, 4.43275198e-02f, 3.45136039e-02f, -1.45844715e-02f, 5.71061373e-02f, 5.70494011e-02f, -2.50448193e-03f, 5.27809598e-02f, 1.31261900e-01f, -3.81028429e-02f, 5.51578999e-02f, 8.14321637e-03f, 2.80602146e-02f, -7.59172486e-04f, -2.99969148e-02f, 2.58996226e-02f, -2.54281826e-04f, 7.55091831e-02f, -4.46780920e-02f, 7.09963217e-02f, -1.74566619e-02f, -2.73345094e-02f },
    { -6.47906959e-03f, -2.89228950e-02f, -3.19350809e-02f, -2.31766459e-02f, 6.97372705e-02f, 5.87055758e-02f, 2.52458788e-02f, -5.27936295e-02f, 3.92931551e-02f, -4.20943499e-02f, 4.24505360e-02f, -3.68862785e-02f, 6.48217425e-02f, -3.68000497e-03f, 1.99375227e-02f, 2.35555433e-02f, 7.99006689e-03f, 4.58773747e-02f, 5.96896075e-02f, -2.95959674e-02f, 4.72104661e-02f, 4.90159541e-02f, 4.41530794e-02f, 5.96657507e-02f, -4.59300578e-02f, -3.10876947e-02f, 1.85824785e-04f, 4.15644497e-02f, 3.62076983e-02f, -5.85372038e-02f, 6.91219866e-02f, 9.94461104e-02f, 5.97516708e-02f, 8.55803192e-02f, 8.08003619e-02f, -5.34097292e-02f, 5.05979396e-02f, -4.09227498e-02f, -9.55742411e-03f, -2.32393164e-02f, 7.44545087e-02f, -4.81529534e-02f, 3.38124707e-02f, 7.44813457e-02f, 4.98865061e-02f, -3.68901044e-02f, 8.96919798e-03f, 4.41396702e-03f, 1.31930774e-02f, -4.17258069e-02f, -4.41491045e-02f, 2.89951754e-03f, 4.98118587e-02f, -3.37396860e-02f, 2.18119025e-02f, -4.91919927e-02f, 3.02018784e-03f, 1.41679673e-02f, -3.44056748e-02f, 5.61601184e-02f, -3.98733206e-02f, 6.11020699e-02f, 5.68143986e-02f, 3.08679733e-02f },
    { -2.17464622e-02f, 3.75448354e-02f, 3.17060500e-02f, -8.25975239e-02f, 3.45441662e-02f, 1.08656026e-02f, -2.88186409e-03f, -2.82927267e-02f, -1.18261278e-02f, -1.22993635e-02f, -7.57812196e-03f, 9.29790735e-02f, 3.88250053e-02f, -3.64832394e-02f, 3.63472700e-02f, 7.56687671e-02f, 5.32215508e-03f, 5.93808945e-03f, 1.54829975e-02f, -1.24998512e-02f, 3.86558636e-03f, 1.02515616e-01f, -2.00558081e-02f, 1.46961641e-02f, 5.72717413e-02f, -4.65959944e-02f, -5.54911457e-02f, 9.87371150e-03f, -4.16927561e-02f, 4.94506620e-02f, 1.38467243e-02f, 3.72152962e-02f, 1.74847674e-02f, 7.91784003e-03f, 7.58980215e-02f, -9.49378032e-03f, -1.12776989e-02f, 3.55628431e-02f, -3.14881988e-02f, 5.04114926e-02f, -2.77783368e-02f, 7.64868483e-02f, -3.70931588e-02f, -6.24126010e-03f, 6.41152859e-02f, 5.67080546e-03f, 1.54001371e-03f, 4.47331667e-02f, 2.53081024e-02f, 2.17430145e-02f, 3.18052433e-02f, 6.36069924e-02f, 1.18168602e-02f, -1.31836617e-02f, -8.47780518e-03f, 5.11420853e-02f, -4.80792113e-02f, 4.80828024e-02f, -1.61962938e-02f, 8.88242107e-03f, -2.34697163e-02f, 1.53799495e-02f, 5.30586876e-02f, 3.37669849e-02f },
    { -1.58084575e-02f, 4.92588356e-02f, -1.38649018e-02f, -7.78701855e-03f, -3.42184603e-02f, -5.95961288e-02f, 5.02910763e-02f, -3.60046029e-02f, 5.19809648e-02f, -5.09501770e-02f, 9.15342383e-03f, -9.27120596e-02f, 7.21312314e-03f, 7.23969862e-02f, 2.82348376e-02f, -3.07191648e-02f, -9.21927113e-03f, -2.95109190e-02f, -1.77026149e-02f, 6.36433586e-02f, 1.93394590e-02f, 5.01957582e-03f, -2.09027994e-02f, 6.19806908e-02f, 5.20364940e-02f, -4.06590058e-03f, 9.60944034e-03f, 9.91484337e-03f, 4.36557718e-02f, 3.29533406e-02f, -2.59073842e-02f, -4.34152447e-02f, -2.98237205e-02f, 6.87831044e-02f, -6.39617909e-03f, -1.03412740e-01f, 2.07709651e-02f, 1.39386980e-02f, -1.85733568e-02f, 1.89070459e-02f, 3.90363745e-02f, -4.22413610e-02f, 6.62154928e-02f, 3.78804319e-02f, -7.08682761e-02f, -1.98967475e-03f, -2.82133855e-02f, 2.03906596e-02f, -2.58537326e-02f, -1.87549740e-02f, 1.18406057e-01f, 2.31950320e-02f, -5.21588176e-02f, -5.01496233e-02f, -2.74641030e-02f, -5.09127527e-02f, 8.59823171e-03f, -6.85931966e-02f, 9.07566492e-03f, 1.66621543e-02f, -2.39391029e-02f, -3.29100639e-02f, 6.27806708e-02f, 1.51153188e-02f },
    { 5.42457551e-02f, 6.03971109e-02f, 7.19163939e-02f, 9.04763415e-02f, 8.02498013e-02f, -2.88167335e-02f, -2.52581723e-02f, 1.96717195e-02f, -2.83616316e-02f, -2.08376031e-02f, -1.98093392e-02f, 4.66333888e-02f, -8.21498409e-03f, -2.80020218e-02f, -1.08844656e-02f, 7.72957206e-02f, -4.84404899e-02f, 6.47175834e-02f, 7.76354149e-02f, -7.82210380e-03f, -4.40447265e-03f, 3.22638229e-02f, -7.86800608e-02f, -4.34243772e-03f, 2.16027759e-02f, -1.01938727e-03f, 7.68389255e-02f, -2.96584554e-02f, -3.35797891e-02f, -7.04824273e-03f, 6.45937398e-02f, 6.51081726e-02f, 1.23229725e-02f, -4.71782312e-02f, -6.03870954e-04f, -1.21466346e-01f, 4.44453396e-03f, -1.85173098e-02f, 1.04296915e-02f, -8.05294979e-03f, -3.10974978e-02f, 3.33365090e-02f, -7.08203716e-03f, -8.79735034e-03f, -4.63049896e-02f, 5.02496958e-02f, 2.83494424e-02f, 9.98806674e-03f, 1.76546369e-02f, -4.25556824e-02f, -1.97921768e-02f, 5.89334592e-02f, 3.73843452e-03f, -1.40811987e-02f, -1.08158598e-02f, 1.27129793e-01f, -1.05148340e-02f, -3.42919342e-02f, 1.07508758e-02f, -5.51473871e-02f, -1.30983451e-02f, 3.14233676e-02f, 2.58701295e-02f, -6.78889751e-02f },
    { 5.52462675e-02f, -4.16125618e-02f, -8.49033892e-03f, -8.00981149e-02f, -1.80572029e-02f, -7.32594654e-02f, 1.14818178e-02f, -2.29086727e-02f, 9.64669883e-03f, -1.14916123e-01f, 4.55483496e-02f, 3.80370319e-02f, 6.56234100e-02f, 1.89541577e-04f, 1.15336413e-02f, -1.69864055e-02f, 7.14060739e-02f, 3.25690694e-02f, 6.41326141e-03f, 6.44279420e-02f, 1.09722741e-01f, 1.06106503e-02f, -3.05954274e-03f, -1.86595775e-03f, 3.97539735e-02f, -3.15023139e-02f, 6.01811223e-02f, 5.80055192e-02f, -4.10765186e-02f, -7.60463551e-02f, -7.57803395e-02f, 2.72548515e-02f, -7.88685307e-02f, -6.40328974e-02f, 2.18667891e-02f, -4.80806921e-03f, -8.39447454e-02f, -4.07136530e-02f, 3.30203213e-02f, 6.38334379e-02f, -3.81483957e-02f, 2.14055926e-02f, -6.12766854e-03f, -3.17424908e-02f, -3.77158783e-02f, -3.98828164e-02f, 2.70264335e-02f, 3.66249494e-02f, -1.06995944e-02f, -5.89165054e-02f, -1.04502581e-01f, 7.55883753e-02f, 3.59636918e-02f, -3.69494744e-02f, -5.54835163e-02f, 7.18667582e-02f, -3.71834189e-02f, 2.93251406e-02f, 3.08906212e-02f, 1.42565779e-02f, -5.48810102e-02f, -8.34290907e-02f, 2.51358896e-02f, -2.74027493e-02f },
    { 2.64523309e-02f, -3.90490256e-02f, 1.38476957e-02f, -2.80117039e-02f, -5.84336445e-02f, -4.80386876e-02f, 8.79407600e-02f, 7.90972188e-02f, -4.70650792e-02f, 4.50019399e-03f, 2.92082168e-02f, -1.01002589e-01f, -3.83313969e-02f, 1.07435189e-01f, -7.38206552e-03f, 7.10564032e-02f, 6.41202740e-03f, 4.15260484e-03f, 4.83975653e-03f, 4.52153524e-03f, 5.54399043e-02f, -8.84377956e-03f, 1.76870257e-01f, 3.50141525e-02f, 1.39745222e-02f, -4.76036593e-03f, -9.90203544e-02f, -5.41104451e-02f, -3.69691625e-02f, -8.44283104e-02f, 5.64460233e-02f, 2.61952393e-02f, -4.09865119e-02f, 3.97142023e-02f, -1.94257665e-02f, 7.25268424e-02f, -4.49696556e-02f, 6.43233256e-03f, 9.20935944e-02f, 3.29535380e-02f, 4.79758997e-03f, -6.00808242e-04f, 2.84150764e-02f, 1.42491274e-02f, 6.41975701e-02f, -2.69739516e-02f, -5.92600107e-02f, -1.28892913e-01f, -4.84069325e-02f, -4.48227972e-02f, -5.36939651e-02f, 1.69356763e-02f, -2.07351837e-02f, 6.90774247e-02f, 1.59904752e-02f, 8.30892175e-02f, 4.16590609e-02f, -7.27311000e-02f, 3.19272876e-02f, 5.14261238e-03f, -4.95073348e-02f, 6.94177300e-03f, 2.84257941e-02f, -3.60923889e-03f },
    { -4.11478616e-02f, 7.24147335e-02f, -3.42272334e-02f, -8.69686902e-03f, 4.45000231e-02f, -5.53104803e-02f, 6.48419857e-02f, 9.95190144e-02f, -8.33311677e-02f, 1.25586674e-01f, -6.72292858e-02f, -1.04808763e-01f, -6.93954481e-03f, 5.08160256e-02f, -4.89034057e-02f, -1.91808283e-01f, 2.07576491e-02f, -3.59155796e-02f, 4.61342148e-02f, 2.70811655e-02f, -7.70450234e-02f, -1.46943435e-01f, 2.58901548e-02f, 6.75641000e-02f, -4.75242026e-02f, -6.28747419e-03f, -3.56711894e-02f, -6.07528016e-02f, 2.72042844e-02f, 6.69819936e-02f, 3.13365459e-02f, -1.74540114e-02f, 4.36714850e-02f, 6.45247027e-02f, -1.17165230e-01f, 8.71235356e-02f, -8.59480072e-03f, -2.28767153e-02f, -2.00721789e-02f, -3.38346288e-02f, -4.08321023e-02f, -4.48064655e-02f, 4.60487530e-02f, 7.87086785e-02f, -3.82208312e-03f, 1.18531939e-02f, -3.36876214e-02f, -3.04970127e-02f, -1.52100757e-01f, -2.81111505e-02f, 1.06841780e-01f, 1.20127918e-02f, -7.00188521e-03f, 5.79431728e-02f, -1.07242083e-02f, -2.79124200e-01f, -5.98845910e-03f, -2.16643903e-02f, 2.91586146e-02f, -1.08429138e-02f, -3.57663557e-02f, 2.00861450e-02f, -5.21995723e-02f, 4.36186343e-02f },
    { -1.33777177e-02f, -5.87879159e-02f, 2.07612924e-02f, -9.88484025e-02f, -5.27615286e-02f, -7.10410299e-03f, 8.06357786e-02f, -9.93553698e-02f, 6.84642568e-02f, -5.15892245e-02f, -3.07542980e-02f, 6.40444383e-02f, -2.19407622e-02f, 2.04102229e-02f, -7.08825290e-02f, 3.32199633e-02f, 4.48858179e-02f, 6.17744513e-02f, 3.78257036e-02f, -1.34703247e-02f, 7.84598365e-02f, -6.03110045e-02f, -1.37086913e-01f, -5.03544323e-02f, -6.04593474e-03f, -1.18024014e-02f, -5.20565361e-02f, -8.76456778e-03f, -3.23440842e-02f, 9.04790759e-02f, 2.58732364e-02f, 3.10437884e-02f, -3.39758545e-02f, 1.19109834e-02f, 9.62449163e-02f, -4.07286808e-02f, 6.95614098e-03f, -8.73393752e-03f, 2.58396734e-02f, 2.72689201e-02f, 5.44425026e-02f, 1.63611341e-02f, 1.39273982e-02f, 4.68824171e-02f, 1.26997754e-03f, -1.18354922e-02f, 6.25752211e-02f, -4.11445200e-02f, 6.72075972e-02f, 7.52112120e-02f, 4.76377159e-02f, -6.35606125e-02f, 4.45441641e-02f, -3.84614803e-02f, -6.22493736e-02f, 1.31769273e-02f, -2.18370669e-02f, 6.38465136e-02f, 8.40379018e-03f, 2.99955755e-02f, 3.20380321e-03f, 1.25417439e-03f, 5.17603755e-02f, -7.63407648e-02f },
    { -3.38485539e-02f, -1.91715127e-03f, -4.66494225e-02f, 6.07566647e-02f, -1.63979102e-02f, -9.37568396e-03f, 5.48706157e-03f, 9.16229859e-02f, -4.16000672e-02f, -6.61901832e-02f, 7.72089278e-03f, 3.99299003e-02f, -2.06677556e-01f, 1.20666400e-01f, -3.35971490e-02f, 9.43421796e-02f, -2.51518320e-02f, 1.15558980e-02f, 7.51825646e-02f, -3.36501449e-02f, 3.99633721e-02f, 3.08156088e-02f, 5.42053767e-02f, 5.51488325e-02f, 6.49737939e-02f, -1.46960570e-02f, 1.68380328e-02f, -5.48488721e-02f, -7.28226220e-03f, -1.78298652e-02f, -2.40967292e-02f, -4.17241268e-02f, -2.46417597e-02f, -3.58227417e-02f, -7.14851022e-02f, -4.62942980e-02f, 9.09179635e-03f, 3.79789732e-02f, -1.00561744e-02f, -8.87464453e-03f, 3.95801663e-03f, -6.46679625e-02f, 2.83945035e-02f, -2.64845882e-02f, 7.02692121e-02f, -2.70082261e-02f, -1.75134372e-02f, -3.64030898e-02f, 9.02967528e-02f, 1.21220611e-02f, -3.03954799e-02f, -3.98099087e-02f, -2.75504473e-03f, 5.03748320e-02f, 4.40960228e-02f, -5.28671928e-02f, -1.03750462e-02f, -4.66816947e-02f, -3.73556279e-02f, -2.42209639e-02f, -2.13433411e-02f, 3.18067297e-02f, 4.95824926e-02f, -4.07910831e-02f },
    { 6.34036213e-02f, 3.85840759e-02f, -7.01952130e-02f, 4.44084629e-02f, -2.79741501e-03f, -4.31631021e-02f, -3.49042453e-02f, -9.19100419e-02f, 1.91037133e-02f, -1.97911728e-02f, -2.07013190e-02f, 8.78356993e-02f, -6.80927485e-02f, 6.24851435e-02f, -5.77806011e-02f, 4.77071963e-02f, 1.59811992e-02f, -7.73497224e-02f, 1.23234922e-02f, 5.38178049e-02f, 5.64514939e-03f, -1.31759001e-02f, -1.50530979e-01f, 3.20208701e-03f, -2.07610670e-02f, -2.61027496e-02f, 1.59726411e-01f, -5.32102436e-02f, -4.13585864e-02f, 1.24369025e-01f, -2.02802420e-02f, -6.94689080e-02f, 4.85007577e-02f, -2.29033642e-02f, 1.40150338e-02f, -3.53511721e-02f, -5.81881516e-02f, 3.30823101e-02f, 3.98150124e-02f, 4.92260754e-02f, 5.65097854e-02f, -5.84803931e-02f, -5.69889285e-02f, 1.48638031e-02f, 3.40507664e-02f, -3.80387530e-02f, -2.14221030e-02f, -4.89334390e-02f, 2.91229435e-03f, 4.75689583e-02f, 1.92806140e-01f, -3.64662521e-02f, 1.87419727e-02f, 3.29228081e-02f, 6.49179593e-02f, 1.26482204e-01f, 2.00835001e-02f, -6.80809617e-02f, -1.54238623e-02f, -4.84945573e-04f, -2.30196286e-02f, -6.21704720e-02f, 7.91648179e-02f, -6.27904534e-02f },
    { -8.73927213e-03f, -3.67793329e-02f, 1.18311308e-02f, 1.12251686e-02f, -3.48788537e-02f, -1.98883675e-02f, 4.08404917e-02f, -9.24004316e-02f, -2.59160213e-02f, 5.18856049e-02f, -3.79742756e-02f, -9.60276797e-02f, -1.46128042e-02f, -7.17147067e-02f, 7.78420549e-03f, 1.27265722e-01f, -3.67041454e-02f, -5.28438315e-02f, -1.22436993e-02f, 9.85663943e-03f, 5.92455827e-02f, 9.07794908e-02f, -2.20179278e-02f, -2.51102094e-02f, 5.84492311e-02f, 3.52089740e-02f, 1.72935680e-01f, -5.20493090e-02f, 6.56975284e-02f, 1.38737231e-01f, -3.92169207e-02f, -2.05337517e-02f, 3.85490842e-02f, 3.06132063e-02f, -7.09151626e-02f, -2.78420355e-02f, 5.93174696e-02f, 6.42202497e-02f, -1.10264504e-02f, 6.34465516e-02f, 5.87650351e-02f, -6.10749470e-03f, 1.50834387e-02f, 1.00935800e-02f, -2.02326849e-02f, 2.69012731e-02f, -2.07795687e-02f, -1.15543855e-02f, -5.20781204e-02f, 4.93428372e-02f, 2.88543314e-01f, 1.55018317e-02f, 4.45008203e-02f, 4.73889410e-02f, -4.55029644e-02f, 4.97487448e-02f, -2.37902012e-02f, 5.38735949e-02f, -5.80190830e-02f, 6.20397329e-02f, 1.72999129e-02f, 1.23285456e-02f, 2.01994572e-02f, 8.41584504e-02f },
    { -2.19014827e-02f, -4.86180047e-03f, 8.10544714e-02f, 2.39382852e-02f, 3.84628847e-02f, 4.16754223e-02f, -4.04239409e-02f, 6.38829246e-02f, -4.88254800e-02f, -6.55116513e-02f, 4.69830167e-03f, 1.14167467e-01f, 8.19471404e-02f, 3.67392860e-02f, -6.31507160e-03f, 5.37651479e-02f, -1.20914960e-02f, -8.81101936e-02f, 6.10848702e-02f, -1.44313797e-02f, 2.37957779e-02f, -3.26789320e-02f, -9.74089280e-02f, 8.48800410e-03f, 6.02248050e-02f, -3.58443372e-02f, 1.20526589e-01f, 4.36887816e-02f, 3.12875807e-02f, -4.29862142e-02f, -5.93251698e-02f, -1.01870159e-02f, -1.36734843e-02f, -6.47089854e-02f, -1.44696146e-01f, -4.44338657e-02f, 1.22511625e-01f, 1.22510688e-02f, 4.91042808e-02f, 1.54229556e-03f, 1.61245540e-02f, 1.11188283e-02f, -3.09762475e-03f, 5.60087413e-02f, 1.32227652e-02f, 1.04099266e-01f, 2.27656495e-02f, 7.78047740e-02f, 6.63363282e-03f, 7.34918937e-02f, -9.59786994e-04f, 5.11972085e-02f, -3.42467725e-02f, 3.16267610e-02f, -1.03595303e-02f, 2.46802866e-02f, 4.15329747e-02f, -2.13226397e-02f, 3.91782001e-02f, -4.70544845e-02f, 3.21894921e-02f, 8.38840082e-02f, -6.07802309e-02f, 4.52903993e-02f },
    { 6.54007196e-02f, -5.28581329e-02f, 8.84515643e-02f, 4.08213295e-04f, -1.25257717e-02f, 1.86642911e-02f, 2.44537797e-02f, -3.88879739e-02f, -4.04569432e-02f, -1.70119051e-02f, 5.94684407e-02f, -4.36293185e-02f, 6.84897304e-02f, -5.25948927e-02f, 4.10422198e-02f, -1.17081031e-02f, -1.43475384e-02f, 6.30745143e-02f, 2.52143033e-02f, 9.18964744e-02f, -9.46508348e-03f, 1.29664794e-01f, -5.15424386e-02f, 3.08913700e-02f, -1.95776094e-02f, -3.24695110e-02f, 1.32814199e-02f, 2.56436691e-02f, -3.13609242e-02f, 1.43203568e-02f, -5.05572148e-02f, -4.65840399e-02f, -2.09329333e-02f, 3.69658619e-02f, 3.36130746e-02f, -7.46126473e-02f, 5.72008721e-04f, -3.82647999e-02f, -2.75210645e-02f, -5.15461117e-02f, 6.45288592e-03f, -2.72553638e-02f, -6.08331896e-02f, -1.86035633e-02f, 1.26693528e-02f, 1.35785313e-02f, 4.91193123e-02f, 6.14126772e-02f, -3.84648629e-02f, -9.26491991e-03f, 3.44653688e-02f, 5.79445716e-03f, -3.96012813e-02f, -2.51488592e-02f, 4.14203629e-02f, -1.01338722e-01f, 3.97864245e-02f, 1.87635310e-02f, -4.01626490e-02f, 2.12319451e-03f, 6.54700473e-02f, -1.55616701e-02f, -3.55092175e-02f, 8.18746313e-02f },
    { -5.38227074e-02f, 5.85353561e-02f, 7.18380064e-02f, 3.90726253e-02f, 2.30261199e-02f, 6.48847036e-03f, 6.40150309e-02f, -6.70246929e-02f, -1.95603501e-02f, 2.07739864e-02f, -1.63897462e-02f, 1.53305745e-02f, 7.88182542e-02f, 3.17735933e-02f, 3.28552462e-02f, -3.51908505e-02f, 3.83443013e-02f, -3.82158607e-02f, 5.58427861e-03f, 3.96773890e-02f, -2.50931587e-02f, -1.81046000e-03f, 3.28466669e-02f, 7.87638128e-03f, -1.23751545e-02f, 6.10704906e-02f, 6.91848546e-02f, 4.10565138e-02f, 4.07722890e-02f, 6.00530654e-02f, 6.02088645e-02f, 1.84113737e-02f, 7.50763938e-02f, 9.24112946e-02f, 3.74951474e-02f, 2.91865715e-03f, -2.64181979e-02f, 5.16290814e-02f, 6.93549542e-03f, -7.35797547e-03f, -4.17601736e-03f, 5.56778833e-02f, 3.43079977e-02f, 9.87149309e-03f, -1.41341947e-02f, -7.03291921e-03f, -4.18025292e-02f, 3.82792130e-02f, 7.35679269e-02f, -1.48187233e-02f, 4.13815118e-02f, 3.35233323e-02f, 6.58526644e-02f, -3.21259350e-02f, 2.27471627e-02f, 1.39104668e-02f, 1.01346457e-02f, 4.35024127e-02f, -2.40510497e-02f, -3.94216254e-02f, 6.51517361e-02f, 1.83903594e-02f, 2.12830827e-02f, 6.32992014e-02f },
    { -1.13341212e-02f, -2.70443466e-02f, -6.80147484e-02f, -3.47239673e-02f, 9.15998369e-02f, 9.03329030e-02f, 6.74587116e-02f, 6.29199669e-02f, 1.36056049e-02f, -6.92104697e-02f, -2.29995251e-02f, -1.68533958e-02f, -4.21295986e-02f, -7.37776048e-03f, 3.57207796e-03f, 7.66996592e-02f, -1.47094089e-03f, 3.84117700e-02f, 3.40067670e-02f, -2.97460277e-02f, 6.81816787e-02f, 6.26077056e-02f, -8.05710629e-02f, -2.10855203e-03f, 4.60004099e-02f, 1.70237590e-02f, -1.24276849e-02f, 3.46883163e-02f, 5.97247034e-02f, -2.82488856e-02f, 1.42688211e-02f, 3.94611247e-02f, -6.20786436e-02f, -4.83741201e-02f, 1.30980834e-01f, 1.32438447e-02f, 2.45456062e-02f, -5.38192056e-02f, -7.02545606e-03f, -3.94557677e-02f, 4.61416319e-02f, -4.39338721e-02f, -3.13098356e-02f, 4.64038588e-02f, 1.63607821e-02f, 3.45753618e-02f, 5.53218015e-02f, -5.56903668e-02f, 1.35899857e-01f, 4.57448699e-02f, 1.02365635e-01f, 6.45935163e-02f, -4.27926108e-02f, -3.29307653e-02f, -3.79611884e-04f, 9.73181725e-02f, 1.37782563e-02f, 1.74827292e-03f, 5.68671077e-02f, 2.68237554e-02f, 9.73541066e-02f, -3.21455337e-02f, 3.92487878e-03f, -3.34106013e-02f },
    { -1.32546746e-04f, 4.50671241e-02f, 3.81535552e-02f, -4.77905050e-02f, -5.97931221e-02f, -8.74584317e-02f, 3.64818424e-02f, -2.93344650e-02f, -4.49383892e-02f, 5.35522252e-02f, -1.16892643e-02f, -1.23709291e-01f, -1.01546928e-01f, 3.27151641e-02f, -5.51424138e-02f, -6.73605362e-03f, -4.48723249e-02f, -3.05252690e-02f, 3.93226333e-02f, 8.21052864e-02f, -1.05693094e-01f, -6.78400025e-02f, -1.17745772e-02f, 3.47912610e-02f, -5.20647410e-03f, -1.30138686e-02f, -1.63623504e-03f, 4.77937385e-02f, -4.38825265e-02f, 1.38670346e-02f, -2.80270856e-02f, -1.15229627e-02f, 4.78455238e-02f, -2.21974626e-02f, -4.67108563e-02f, -6.12446293e-02f, 1.07382436e-03f, -3.69557105e-02f, 5.04055768e-02f, 3.85924727e-02f, 5.46290427e-02f, 4.79506366e-02f, -3.56087387e-02f, 8.05061217e-03f, 3.49069126e-02f, 3.40002812e-02f, -3.23777534e-02f, -6.36252835e-02f, -7.80519843e-02f, 7.73025723e-03f, 9.65309292e-02f, -4.17112820e-02f, 3.38925309e-02f, -4.73534316e-02f, 2.23037545e-02f, -1.24532476e-01f, 6.88233972e-02f, 2.87937019e-02f, 5.93327396e-02f, -4.78558131e-02f, 1.90194864e-02f, -7.31897652e-02f, -2.83538327e-02f, -7.95079023e-03f },
    { -3.93799953e-02f, 3.92871313e-02f, 2.46364754e-02f, 5.51436208e-02f, 1.82217564e-02f, -9.81338136e-03f, -6.85971323e-03f, 4.40719053e-02f, -7.66038224e-02f, -1.12880608e-02f, -1.92345120e-02f, 1.08494736e-01f, -8.11224282e-02f, 8.95453915e-02f, -3.95407565e-02f, 7.90583342e-02f, 2.45217681e-02f, 5.43301143e-02f, -2.87304772e-03f, -2.74174605e-02f, -1.19951470e-02f, 4.07608412e-02f, -1.00204781e-01f, -1.06803132e-02f, 5.52079529e-02f, -5.47645278e-02f, 7.03578815e-02f, 5.84068261e-02f, 4.69544381e-02f, -4.53737527e-02f, 6.89575151e-02f, 6.58126771e-02f, -6.90700626e-03f, -2.07598228e-02f, -7.15567321e-02f, -1.45020857e-01f, -7.78743327e-02f, -4.49402966e-02f, 7.79030249e-02f, -4.99772169e-02f, 3.88118885e-02f, 1.47263585e-02f, 3.70085202e-02f, 2.82161441e-02f, 5.96760586e-02f, 5.66804968e-02f, 5.66154942e-02f, 5.36807552e-02f, 4.30222526e-02f, 5.19076176e-02f, 1.68635380e-02f, -3.17785367e-02f, -2.28354707e-02f, -9.98574542e-04f, -1.45027684e-02f, 5.24129085e-02f, 7.72947520e-02f, -5.79996221e-02f, 5.51563986e-02f, 4.83483076e-02f, 2.07036566e-02f, -1.94029696e-02f, 4.59146053e-02f, -3.84564549e-02f },
    { 7.07044601e-02f, 5.53567410e-02f, 4.74207401e-02f, -3.61165665e-02f, -2.54701246e-02f, 1.24767190e-02f, -4.48374136e-04f, -1.18142746e-01f, 4.79358882e-02f, -4.87269238e-02f, 4.70378175e-02f, 7.77067915e-02f, -2.57268101e-02f, 5.45439646e-02f, -6.82808808e-04f, -6.79949075e-02f, -3.47262025e-02f, -5.54665690e-04f, -2.72781532e-02f, -6.07593469e-02f, 7.43263587e-02f, -1.89125873e-02f, -4.96044615e-03f, 2.53967885e-02f, -1.00552943e-02f, 1.84687357e-02f, 2.83606350e-02f, 3.14601287e-02f, -7.09979981e-03f, 7.87029602e-03f, -7.20533580e-02f, 1.38091385e-01f, -8.28797594e-02f, 2.89327446e-02f, 2.10807659e-03f, -4.18267325e-02f, -4.73034754e-02f, -7.35644624e-03f, -1.26334215e-02f, 5.84742427e-02f, 2.95487437e-02f, -1.03514921e-02f, -5.36606871e-02f, -1.18338494e-02f, 5.31786084e-02f, -3.69296968e-02f, 3.14927734e-02f, 4.80719544e-02f, -3.90397012e-02f, 5.35180653e-03f, -1.24931918e-03f, -2.42272951e-02f, 3.45784100e-03f, 4.77588922e-02f, -1.46268150e-02f, 1.52745908e-02f, 2.52062082e-02f, 9.00912751e-03f, -1.40443444e-02f, -7.98743975e-04f, -2.25202627e-02f, -1.47615699e-02f, 2.69259401e-02f, 3.20660062e-02f },
    { -8.21057931e-02f, -4.12823968e-02f, 6.64751092e-03f, -2.83505935e-02f, -2.76518706e-03f, 4.45589274e-02f, 3.05381361e-02f, 9.61402524e-03f, 3.54089215e-02f, 3.16885598e-02f, 9.61798651e-04f, -6.14921525e-02f, 5.76249734e-02f, -7.67116388e-03f, 3.63577753e-02f, 9.35909450e-02f, -3.93237509e-02f, -2.80244043e-04f, 8.90145451e-02f, 3.16078700e-02f, 7.55048841e-02f, 7.81934988e-03f, 9.60786641e-02f, -6.80227578e-03f, -3.96900848e-02f, -3.55911702e-02f, 3.02033797e-02f, 5.85641190e-02f, 1.86236463e-02f, -2.27502808e-02f, 1.23267481e-03f, -7.35087916e-02f, 4.41994891e-02f, 3.52086872e-02f, -8.44637305e-02f, -4.18152623e-02f, 1.69646051e-02f, -4.87577356e-02f, -3.77095863e-02f, 3.57776172e-02f, -4.19074185e-02f, -3.08902115e-02f, -1.85656454e-02f, -3.91469114e-02f, 2.47635925e-03f, -9.85684991e-02f, -1.91490520e-02f, -1.35368317e-01f, -1.03004031e-01f, 5.08002304e-02f, 1.18098579e-01f, -4.52675074e-02f, 1.83978043e-02f, 3.26189352e-03f, 3.69188115e-02f, 1.06008045e-01f, 2.36899275e-02f, 3.96841653e-02f, -6.63471892e-02f, 5.04150465e-02f, 3.73268202e-02f, -4.18707617e-02f, -1.78818610e-02f, 2.00895150e-03f },
    { -1.72828380e-02f, 2.50832681e-02f, 3.35080251e-02f, 1.33929104e-02f, 1.73863620e-02f, 2.66223773e-02f, -2.18820199e-02f, 2.00364843e-01f, -5.66599704e-02f, -3.07757556e-02f, 4.98392247e-02f, -6.30299821e-02f, 6.84873015e-02f, 4.59027030e-02f, -4.07024799e-03f, -2.25732550e-01f, -7.42110936e-03f, 1.80861168e-02f, -1.73136722e-02f, -7.92091247e-03f, -1.46278873e-01f, -1.15501232e-01f, -5.14892042e-02f, -1.82124805e-02f, 1.80652235e-02f, 3.38240643e-05f, 7.78901428e-02f, 9.61190835e-03f, 2.49558617e-03f, 3.05892099e-02f, 2.38984935e-02f, -1.70404222e-02f, 2.18736120e-02f, 8.73613209e-02f, -1.03711471e-01f, 9.39098839e-03f, 4.04090546e-02f, -4.57484648e-02f, -1.31888362e-02f, 7.25264028e-02f, -6.61581755e-03f, -9.21803340e-03f, -7.29302093e-02f, -4.23480524e-03f, -3.20363194e-02f, -6.55564666e-02f, -2.36874353e-02f, 4.04931009e-02f, -2.38945231e-01f, 4.24630828e-02f, 1.72858775e-01f, 1.69759430e-02f, -2.05374397e-02f, -1.26228100e-02f, 6.73227161e-02f, -2.12753117e-01f, 3.59107815e-02f, 1.37371412e-02f, -3.84015590e-02f, 1.43896742e-02f, 5.18805571e-02f, -6.69599399e-02f, -6.18444048e-02f, 5.65141216e-02f },
    { 5.49809486e-02f, 3.18512283e-02f, -8.13468322e-02f, -4.24382277e-02f, 1.74967628e-02f, -7.98173994e-02f, -4.93145874e-03f, -1.59907386e-01f, -2.77211089e-02f, 4.19789925e-02f, -3.74845974e-02f, 4.37074341e-02f, 6.03132434e-02f, 9.71337967e-03f, 6.55425563e-02f, 5.21752657e-03f, -6.95522130e-03f, -1.39100030e-02f, 5.09648658e-02f, 4.54720929e-02f, -1.41677922e-02f, -4.01348546e-02f, -1.09568790e-01f, -8.23730826e-02f, 5.91004677e-02f, 5.84277436e-02f, -6.32571504e-02f, 2.90512368e-02f, 3.28381285e-02f, 5.22642545e-02f, 9.59437434e-03f, 4.08250093e-02f, 9.47936613e-04f, 2.15226375e-02f, -2.23677512e-03f, -2.25694720e-02f, 8.64001643e-03f, 6.04029372e-02f, 4.82408516e-02f, 1.93615463e-02f, -3.98242101e-02f, 3.52759324e-02f, -1.64922234e-02f, 5.67234755e-02f, -6.65811496e-03f, -6.09862581e-02f, 5.19088469e-02f, 7.99663365e-03f, 6.21556044e-02f, 5.52811995e-02f, 6.96809143e-02f, -1.22725582e-02f, 4.63938676e-02f, 3.81135121e-02f, 2.15040985e-02f, -7.05508399e-04f, 4.47075106e-02f, 7.01005086e-02f, -2.07004827e-02f, -7.09636509e-02f, -3.56788039e-02f, 7.65480055e-03f, -1.10759847e-02f, 4.36071642e-02f },
    { 4.07928135e-03f, 4.86934446e-02f, -4.38554138e-02f, 2.57539321e-02f, 7.22548813e-02f, 5.03041074e-02f, -6.31096400e-03f, -1.21170292e-02f, 1.44788725e-02f, 2.63323784e-02f, 6.49336204e-02f, -1.86329111e-02f, -1.51237383e-01f, 4.73157801e-02f, 6.52929991e-02f, -8.33532959e-03f, 2.35773008e-02f, 2.12530117e-03f, -2.31653564e-02f, -2.31774021e-02f, 6.98443223e-03f, -1.48819452e-02f, -1.60913132e-02f, 4.28036973e-02f, 2.87553817e-02f, 5.66372182e-03f, 1.99680831e-02f, -3.12350560e-02f, -4.85648885e-02f, -2.29395628e-02f, 5.88391386e-02f, 3.91460396e-02f, 2.28120591e-02f, -8.65922049e-02f, -1.68955550e-02f, 1.15497168e-02f, 4.53286944e-03f, -1.94165180e-03f, 3.91722191e-03f, 6.88381447e-03f, 2.73364019e-02f, -3.18017006e-02f, -6.20660149e-02f, -1.90000068e-02f, -4.04225662e-02f, -6.13418855e-02f, 6.10666536e-02f, 1.39551712e-02f, 4.67792340e-02f, 3.07356380e-02f, 2.64248643e-02f, 2.86723636e-02f, -1.05971359e-02f, -2.01067179e-02f, -3.07394322e-02f, -7.89201185e-02f, 1.60970949e-02f, 8.14686343e-03f, -3.03048524e-03f, -3.58874425e-02f, 3.75131033e-02f, 2.40620761e-03f, 2.48667761e-03f, -6.18050396e-02f },
    { -3.40931071e-03f, -4.35924605e-02f, 2.90262643e-02f, 2.03043167e-02f, -4.56398204e-02f, 3.47233973e-02f, -1.50355501e-02f, 4.43895347e-02f, 3.43365334e-02f, 3.15736644e-02f, 4.11407761e-02f, 1.28288731e-01f, -2.30631158e-02f, -1.95453484e-02f, -5.05764447e-02f, 3.29396129e-02f, -2.18135901e-02f, -3.98632176e-02f, 5.49768507e-02f, 1.09003922e-02f, 1.10957876e-01f, 8.09191987e-02f, -1.04127266e-01f, 8.27108882e-03f, -3.41952443e-02f, -6.01007566e-02f, 1.37925267e-01f, -9.16879810e-03f, -4.08072881e-02f, 1.63862109e-01f, 4.20407206e-02f, -6.55948790e-03f, -2.25316789e-02f, -4.42347415e-02f, -1.92545317e-02f, -1.81380883e-02f, -9.60581973e-02f, 6.79654405e-02f, -9.23125632e-03f, 4.94435318e-02f, -2.78719794e-02f, -4.94417772e-02f, 3.33619351e-03f, 4.58504148e-02f, -4.74418588e-02f, 2.26676688e-02f, 8.89542103e-02f, -4.40611914e-02f, 5.31431958e-02f, 6.17035180e-02f, 1.35266647e-01f, -8.15470442e-02f, -3.45253870e-02f, 5.20153977e-02f, 9.72362887e-03f, 1.96806714e-01f, 9.34261829e-02f, -3.61290686e-02f, -7.48574957e-02f, 4.98606600e-02f, 7.96483308e-02f, -2.96572857e-02f, -3.50982919e-02f, 6.10160828e-02f },
    { 3.58638428e-02f, 2.30704620e-02f, 4.11061831e-02f, 5.43816015e-02f, -2.31827293e-02f, -8.52410216e-03f, -5.39715737e-02f, 1.00383833e-01f, 1.26760909e-02f, 1.16444662e-01f, -4.39387374e-02f, -3.29155512e-02f, -4.33578901e-02f, 2.03005522e-02f, 4.59447652e-02f, 5.36577851e-02f, 2.55523622e-02f, 7.84197748e-02f, 5.73737510e-02f, 2.16696188e-02f, 1.13669313e-01f, 2.85975784e-02f, -9.07978974e-03f, -3.98811363e-02f, 3.55120637e-02f, -4.51642424e-02f, 2.38694046e-02f, 5.90040237e-02f, -4.46505425e-03f, 1.26544192e-01f, 1.08222314e-03f, 8.29908848e-02f, 2.95576099e-02f, 3.20680887e-02f, 5.45418262e-03f, -3.85944694e-02f, 3.23403738e-02f, 4.73255105e-02f, 4.87417504e-02f, 2.55182553e-02f, -2.52885427e-02f, 3.66281383e-02f, -5.43316826e-02f, -3.38689946e-02f, -4.41205315e-03f, 7.33024329e-02f, -9.31773055e-03f, -5.26202135e-02f, -1.69585086e-02f, -5.54806516e-02f, 2.94068027e-02f, 4.46950905e-02f, 5.03958277e-02f, 9.53587145e-03f, -1.05102388e-02f, 6.57526106e-02f, -3.89804095e-02f, 1.07103467e-01f, -4.97373939e-02f, -2.94737406e-02f, -2.05329643e-03f, 2.47619506e-02f, 5.14331413e-03f, 5.74929081e-02f },
    { -4.40401472e-02f, -4.13043872e-02f, 2.02518143e-02f, 2.76703965e-02f, -1.24855125e-02f, -2.00620405e-02f, -9.36788507e-03f, -2.14912370e-02f, -2.63880417e-02f, -3.36758085e-02f, 5.69425290e-03f, 2.02687889e-01f, 9.01463330e-02f, -5.45317195e-02f, -1.71585474e-02f, -5.19657582e-02f, 9.99000762e-03f, -2.70620212e-02f, 3.58686433e-03f, -4.23334917e-04f, 7.04975352e-02f, -7.85687491e-02f, -1.27004713e-01f, 5.82725070e-02f, 2.16526655e-03f, 1.28727844e-02f, 1.24335915e-01f, 3.82022895e-02f, -1.58107113e-02f, 3.60952714e-03f, 5.23598716e-02f, 8.27395916e-02f, -1.14308642e-02f, -4.86743972e-02f, 1.98758449e-02f, -1.01346277e-01f, 4.81362976e-02f, -8.35340098e-03f, 6.16066977e-02f, 1.89184099e-02f, -2.35808138e-02f, 4.62238900e-02f, 6.27145022e-02f, 4.12539989e-02f, 2.87270918e-02f, 7.80438930e-02f, 7.69439191e-02f, 1.35085406e-02f, 2.33968329e-02f, 4.65926193e-02f, -5.34254201e-02f, -4.26416509e-02f, -4.59733332e-04f, 4.17515449e-03f, -1.10376468e-02f, -4.23279591e-02f, -3.35046537e-02f, -1.33329341e-02f, -6.47706538e-02f, 1.59054250e-02f, 1.25082871e-02f, -5.39080873e-02f, -6.97696507e-02f, -1.32783018e-02f },
    { 1.60432905e-02f, 2.62445938e-02f, 2.21225116e-02f, 1.76766664e-02f, -3.03548705e-02f, -1.85911097e-02f, 1.35305626e-02f, 3.39480750e-02f, -5.76824211e-02f, -9.45663154e-02f, -7.13758916e-03f, 1.18020095e-01f, 6.25520721e-02f, 1.00585269e-02f, 6.09414931e-03f, -3.43838893e-02f, -3.32041364e-03f, 4.46945876e-02f, 3.40130217e-02f, 5.89538403e-02f, 8.14932659e-02f, 8.41722451e-03f, -8.18119720e-02f, -5.26602566e-02f, -5.77243380e-02f, 4.33772542e-02f, 5.46429679e-02f, -5.17830141e-02f, -1.85760595e-02f, -6.11892343e-02f, 6.43066913e-02f, -3.55338380e-02f, -4.35083658e-02f, 3.57200056e-02f, 3.09872944e-02f, 4.88696666e-03f, -7.79666826e-02f, 3.42590697e-02f, -1.08508719e-02f, -3.49841565e-02f, 6.52127340e-02f, 3.40108201e-03f, -6.51444346e-02f, 3.28315347e-02f, 7.91743174e-02f, -6.59416169e-02f, -3.68464738e-02f, -1.45994751e-02f, -4.62675542e-02f, -2.72595435e-02f, 8.52273926e-02f, 3.59190516e-02f, -2.27430426e-02f, 1.33266505e-02f, -1.62094701e-02f, 4.64305887e-03f, 3.12790051e-02f, 4.63777184e-02f, 5.16113713e-02f, 1.83289852e-02f, 5.06956652e-02f, 8.40942375e-03f, -6.53194636e-02f, -4.28103022e-02f },
    { 3.84922773e-02f, -3.49901281e-02f, 4.11064401e-02f, 8.94621480e-03f, -1.92775503e-02f, -1.05996209e-03f, 1.64821185e-02f, 4.09959108e-02f, 4.48570475e-02f, 1.13907252e-02f, -5.23389615e-02f, 4.50780913e-02f, 4.40245271e-02f, -6.07658969e-03f, 6.82094619e-02f, 2.65541933e-02f, 3.32142562e-02f, -5.88398846e-03f, 1.89241357e-02f, -1.06323250e-02f, 4.43270634e-04f, 4.42520082e-02f, 9.96717717e-04f, 3.45892236e-02f, 1.30925979e-02f, 1.84434503e-02f, 6.11110143e-02f, -3.79505530e-02f, 1.57372281e-02f, -3.59713286e-02f, -4.72130179e-02f, -5.32506127e-03f, 2.51058228e-02f, 4.47433926e-02f, 4.35614474e-02f, 7.04437569e-02f, 9.20180753e-02f, -1.35927452e-02f, 1.63835660e-02f, -2.12786701e-02f, 3.71819697e-02f, 4.75356877e-02f, 2.83858068e-02f, 4.61025573e-02f, -3.82992364e-02f, 2.26451997e-02f, -2.66621029e-03f, -4.04434577e-02f, -3.38628292e-02f, -1.89390522e-03f, 4.73724678e-02f, 5.73703870e-02f, 4.81553264e-02f, -5.38354926e-02f, 1.67917367e-02f, -1.36729479e-02f, 2.22948380e-02f, 8.53169113e-02f, 2.49317735e-02f, -6.08081557e-02f, -1.10739172e-02f, 7.01351613e-02f, 1.23755205e-02f, 1.78835168e-02f },
    { 2.32861959e-03f, -4.27213013e-02f, -7.11106881e-02f, 1.78108402e-02f, 4.77394350e-02f, 1.30455568e-02f, 2.63466090e-02f, 2.54740529e-02f, -2.57548746e-02f, -8.07690322e-02f, 4.89119552e-02f, 2.97291856e-02f, 5.08919433e-02f, 4.65677492e-02f, 2.64217909e-02f, 9.62098613e-02f, 6.93912879e-02f, -6.34596348e-02f, -1.73126720e-02f, 6.06059432e-02f, 1.35584489e-01f, 9.51039270e-02f, -2.82480530e-02f, -4.49459963e-02f, -3.64383124e-02f, 4.36786190e-02f, -3.26869376e-02f, 2.86324807e-02f, -5.66124395e-02f, 4.35465313e-02f, 7.31011853e-03f, -2.17360798e-02f, 5.75828031e-02f, 1.29660405e-02f, 8.08476582e-02f, -5.03372066e-02f, 7.29057863e-02f, -6.77899551e-03f, 4.80710007e-02f, 3.77414711e-02f, -4.70888540e-02f, -3.33634727e-02f, -1.39630912e-02f, 6.71607479e-02f, 1.35734566e-02f, 8.31943899e-02f, -8.62114783e-03f, 4.32567261e-02f, 9.38188732e-02f, -1.71107519e-02f, 5.13106473e-02f, -3.05906236e-02f, -1.81359835e-02f, 2.48948503e-02f, -3.06606162e-02f, 8.98943618e-02f, 4.47525680e-02f, -1.84706971e-02f, 5.81229702e-02f, 5.27926162e-02f, 5.14303930e-02f, -5.04665123e-03f, 4.67218719e-02f, 1.02231326e-02f },
    { 6.50515556e-02f, -6.25724765e-03f, 6.48217276e-02f, -3.47622409e-02f, 5.65461107e-02f, -3.45409140e-02f, 1.00699462e-01f, -3.65320481e-02f, 3.61271985e-02f, 1.05846953e-03f, 4.44270810e-03f, -9.78394672e-02f, -2.03712471e-03f, -2.06944179e-02f, 7.07020611e-03f, -1.01921260e-01f, 3.63385603e-02f, -7.87829161e-02f, -1.06154790e-03f, 8.16530287e-02f, -2.06639897e-02f, 3.17179300e-02f, 4.30585742e-02f, -5.68860322e-02f, -5.36735319e-02f, -4.20378372e-02f, -4.05022167e-02f, -5.60344383e-02f, -1.87035929e-02f, 1.09276615e-01f, -5.38037531e-02f, -5.56735024e-02f, -8.51394981e-03f, -5.91163114e-02f, -4.27023284e-02f, -4.89904406e-03f, 4.72943857e-02f, 5.89599796e-02f, 2.44643968e-02f, 4.38885503e-02f, 6.13185726e-02f, -3.86818647e-02f, -2.90208701e-02f, 8.07784777e-03f, -4.37658392e-02f, 1.43640628e-03f, -3.59467380e-02f, -2.76447833e-02f, 2.61087604e-02f, -4.01086882e-02f, 7.33144134e-02f, 1.48873078e-02f, -3.69167477e-02f, -3.66687886e-02f, -4.77343313e-02f, -4.28889766e-02f, 1.00779839e-01f, 3.53393666e-02f, 5.95042109e-02f, 6.32238686e-02f, 1.37725146e-02f, 4.48698476e-02f, 6.10704953e-03f, -4.85585444e-02f },
    { 5.23880757e-02f, -5.23175895e-02f, -1.40920375e-02f, 3.50439698e-02f, 9.90575105e-02f, 2.18374841e-02f, -2.47433558e-02f, 2.51362510e-02f, 2.16938574e-02f, -2.65582148e-02f, 7.18159676e-02f, -4.77664359e-03f, -2.08223588e-03f, 4.36728857e-02f, -1.18087465e-02f, -2.55754627e-02f, 2.80229375e-02f, 5.60862944e-02f, -4.82582711e-02f, -4.14575525e-02f, 2.96356604e-02f, 6.19780831e-02f, -6.39426475e-03f, -1.09285228e-02f, -5.50303608e-03f, -3.70549262e-02f, 9.77829695e-02f, 8.13594460e-02f, 1.64974052e-02f, 4.58261445e-02f, 5.03769107e-02f, 3.93737853e-02f, -4.36171331e-02f, -6.06615953e-02f, 1.39829032e-02f, 2.42951456e-02f, -5.10039590e-02f, 4.05015945e-02f, 6.36738837e-02f, -4.09160294e-02f, 3.80212441e-02f, -1.96284074e-02f, 7.22473189e-02f, -4.64956537e-02f, 3.80555503e-02f, 5.43651953e-02f, 1.06405234e-02f, 5.72383031e-02f, 6.11697808e-02f, -3.77124920e-02f, 2.44634808e-03f, 3.56794856e-02f, -4.17203754e-02f, -1.79366430e-03f, -1.60285570e-02f, 1.17541067e-01f, -4.29558866e-02f, 2.93220952e-02f, -3.52254584e-02f, 5.02658961e-03f, -1.39146112e-03f, -4.50562611e-02f, 4.31207232e-02f, -4.49530445e-02f },
    { -1.38282152e-02f, -4.50733267e-02f, 9.75686088e-02f, 4.05708626e-02f, 2.74687652e-02f, -7.13075548e-02f, -1.93575807e-02f, -1.46929055e-01f, 6.93697855e-02f, -1.26495957e-01f, 2.16146372e-03f, 1.18350834e-02f, -6.28690794e-02f, -3.35526690e-02f, 1.76702123e-02f, -6.65517375e-02f, 5.38577214e-02f, 6.88138828e-02f, 3.47649343e-02f, 3.97859551e-02f, 4.15330268e-02f, -1.07248360e-02f, 2.48002019e-02f, 5.47241094e-03f, -5.42853773e-02f, 6.54673725e-02f, -5.11198826e-02f, -3.22778672e-02f, 7.18972310e-02f, 3.75587642e-02f, -6.21408895e-02f, 6.53617457e-02f, -9.06991679e-03f, -5.39939031e-02f, 5.48660867e-02f, -1.71531979e-02f, -3.48596275e-02f, -4.17600721e-02f, -1.62858702e-02f, 1.81869720e-04f, 3.09587382e-02f, -4.23541106e-02f, 4.65839542e-02f, -2.67249960e-02f, 5.87364435e-02f, -1.16267409e-02f, 7.50718713e-02f, -4.12879810e-02f, -3.15757692e-02f, -1.54548455e-02f, -7.62094334e-02f, -6.08143844e-02f, -3.74005735e-02f, 3.44084278e-02f, -2.99841017e-02f, -6.99885860e-02f, 6.56006411e-02f, -6.12033643e-02f, 1.30567802e-02f, 5.29017299e-02f, -1.04301842e-02f, -3.10722529e-03f, 5.18733682e-03f, -1.27652735e-02f },
    { -2.08092984e-02f, 4.87556830e-02f, -5.35736000e-03f, 4.83819135e-02f, 1.54368887e-02f, 2.61403993e-02f, 3.79528850e-02f, -2.39779409e-02f, 6.51680902e-02f, 3.06155775e-02f, -4.72489744e-02f, -1.68402076e-01f, 5.01154698e-02f, 1.11644724e-02f, 4.63222573e-03f, -6.90756515e-02f, -6.45306334e-02f, -1.17390146e-02f, 1.01692781e-01f, -1.86958676e-03f, 1.58090424e-02f, -5.22149615e-02f, 1.02998868e-01f, -7.11727515e-03f, -2.98304539e-02f, 1.71766877e-02f, -2.57252231e-02f, 2.61013899e-02f, 5.61645851e-02f, 8.49182308e-02f, 3.89143936e-02f, -6.51751906e-02f, 5.11524491e-02f, 5.25964424e-02f, -5.70990443e-02f, 3.76434438e-02f, 1.99519247e-02f, -1.76555682e-02f, 3.11867874e-02f, 5.74990176e-03f, 4.01173811e-03f, -8.79417285e-02f, 4.78978455e-03f, 7.61571601e-02f, 6.33188039e-02f, -4.47505200e-03f, -6.80710971e-02f, -1.28717288e-01f, -1.04760937e-01f, -1.53787830e-03f, 8.20710585e-02f, 3.01365601e-03f, -3.03126350e-02f, -4.23510484e-02f, 2.17011664e-02f, 5.09010162e-03f, 6.12972230e-02f, 4.91997153e-02f, -3.25872228e-02f, -3.45481373e-02f, 8.96318257e-02f, -5.83114587e-02f, 3.47223915e-02f, -6.78503290e-02f },
    { 6.37957174e-03f, -1.19437994e-02f, 6.19089752e-02f, 7.82154426e-02f, 8.80481862e-03f, 4.33173813e-02f, 5.02707763e-03f, 6.65849224e-02f, 4.07006107e-02f, -5.87250665e-02f, 5.81626631e-02f, -7.52524063e-02f, 1.54931974e-02f, 2.60786507e-02f, -8.11673049e-03f, -1.02516010e-01f, -3.64179909e-02f, -5.85582107e-02f, -5.11966199e-02f, 9.22709629e-02f, -7.90656880e-02f, -3.16228829e-02f, -6.51281849e-02f, -4.41498272e-02f, 4.88853268e-02f, -8.29644408e-03f, 1.01592802e-01f, -5.41949384e-02f, 4.17323597e-02f, -6.89390441e-03f, 3.17085274e-02f, -8.29675943e-02f, 6.71373382e-02f, -2.84860712e-02f, -1.79354861e-01f, 5.72742335e-02f, -6.91530034e-02f, -5.29890023e-02f, -2.54802126e-02f, 4.54596803e-02f, -6.60463190e-03f, -6.68867603e-02f, -3.30468384e-03f, 3.57629769e-02f, 4.36909869e-02f, -7.65569508e-02f, 7.72735998e-02f, 2.29457878e-02f, -2.28152931e-01f, 3.56651992e-02f, 1.94348991e-01f, 2.64571123e-02f, 3.09333578e-02f, -3.49000678e-03f, 4.25107591e-02f, -3.16938519e-01f, 7.87015946e-04f, 6.34789541e-02f, -1.46654686e-02f, 2.06953026e-02f, -2.06416734e-02f, -5.48101217e-02f, -9.27577028e-04f, 2.68048812e-02f },
    { 1.09187737e-02f, 3.41403894e-02f, -6.90552816e-02f, -7.69413784e-02f, 1.28021799e-02f, -7.22743347e-02f, -5.31691909e-02f, -5.13290502e-02f, 4.41198200e-02f, 4.32658941e-02f, 1.85052939e-02f, -2.52806246e-02f, -1.29478239e-02f, -1.07645029e-02f, 3.24119776e-02f, -1.08737464e-03f, -4.73014675e-02f, -3.97776067e-02f, -1.17758019e-02f, -4.12171753e-03f, 5.21106049e-02f, 2.15542596e-02f, -3.19638215e-02f, -7.83930495e-02f, -6.16364367e-02f, 1.94784477e-02f, -3.69639397e-02f, -3.06185838e-02f, -5.71043976e-02f, 3.89121287e-02f, -2.84795575e-02f, 9.46570467e-03f, 1.09063908e-02f, 9.64292586e-02f, -6.58249781e-02f, -5.02377562e-02f, 6.30826503e-02f, 2.71865427e-02f, 6.36293367e-02f, 7.78316259e-02f, 7.32815340e-02f, 4.10245769e-02f, 1.90538149e-02f, -1.91397034e-03f, -1.72737576e-02f, -1.09617621e-01f, 9.30861291e-03f, -5.92421368e-02f, -6.26435354e-02f, -2.51381192e-02f, 3.41280550e-02f, -1.58553217e-02f, 1.90229528e-02f, 1.01112239e-02f, -4.74641696e-02f, -1.04960836e-01f, -1.36567354e-02f, 6.53338134e-02f, 5.64148044e-03f, -6.47139847e-02f, -2.98914555e-02f, 7.23494291e-02f, 1.94301624e-02f, -6.55606017e-02f },
    { -9.59782079e-02f, -1.53250908e-02f, 6.81424187e-03f, -1.23220542e-02f, -3.01466361e-02f, 9.00320485e-02f, 5.43131717e-02f, 5.03461510e-02f, -4.01713140e-02f, -9.61987078e-02f, 4.36690152e-02f, 5.60184866e-02f, -8.04256722e-02f, -2.34709736e-02f, 8.29837809e-04f, -1.05157979e-01f, -1.08796889e-02f, -2.74433978e-02f, 3.57900709e-02f, -1.88064985e-02f, -2.99220253e-02f, -3.33100520e-02f, 3.50011364e-02f, -2.35610292e-03f, -4.68980148e-03f, -3.03366557e-02f, 3.05921864e-03f, 3.88627909e-02f, -5.12182340e-02f, 3.95835079e-02f, -5.52243926e-03f, -2.87278593e-02f, 2.79322430e-03f, 2.45531425e-02f, -6.56654015e-02f, -7.66181424e-02f, 5.73743694e-02f, 1.13991126e-02f, 3.01994439e-02f, -2.70362720e-02f, 3.81905958e-02f, 6.19500987e-02f, -6.99046720e-03f, 9.39513370e-02f, 1.86774936e-02f, 2.75698975e-02f, 5.23394682e-02f, -3.45109105e-02f, -3.23757492e-02f, -5.34278043e-02f, 2.62228008e-02f, 4.25128713e-02f, 2.88394652e-02f, 7.31508248e-03f, -2.55595297e-02f, -1.21467315e-01f, 7.40578771e-02f, -5.88372238e-02f, -1.35178817e-02f, -5.31681553e-02f, 4.46357690e-02f, 9.10361707e-02f, 8.77480805e-02f, 3.97506030e-03f },
    { -5.84471226e-02f, 5.95252402e-02f, -2.44792853e-03f, -8.66027735e-03f, 5.50208874e-02f, -9.52525437e-03f, 2.06986889e-02f, 5.66375628e-02f, -7.10094022e-03f, 9.56907496e-02f, -1.47358868e-02f, 1.89991891e-01f, 2.13917047e-02f, -2.68379543e-02f, -7.68507086e-03f, 3.02256662e-02f, -4.11176682e-02f, -6.03721626e-02f, 4.58853655e-02f, 1.09250573e-02f, 7.43007883e-02f, 5.26409373e-02f, -4.36687544e-02f, -7.43915215e-02f, 5.76702245e-02f, 6.57836497e-02f, -1.54367983e-02f, 4.69357446e-02f, -2.46017352e-02f, 1.43958509e-01f, 1.94572732e-02f, -1.28203388e-02f, -3.13950032e-02f, 1.03737004e-02f, -4.94802278e-03f, -2.60995943e-02f, -6.55768486e-03f, 2.72929445e-02f, -8.38122703e-03f, -4.34937440e-02f, 6.42892644e-02f, 2.31314320e-02f, -1.68660395e-02f, 3.98822650e-02f, 1.70457698e-02f, -8.36925060e-02f, -1.46332281e-02f, -5.98354824e-02f, 3.49101536e-02f, 5.33814281e-02f, 2.40065609e-04f, 2.14445777e-02f, -3.12829688e-02f, 4.41155350e-03f, -2.36119591e-02f, 1.27037644e-01f, 8.79739039e-03f, -6.76075965e-02f, 1.49907842e-02f, 4.04604990e-03f, 8.81634876e-02f, -5.27422205e-02f, 2.56593116e-02f, 5.45208752e-02f },
    { 1.04702478e-02f, -1.12134423e-02f, 2.61535682e-02f, 2.68509984e-02f, 1.94207709e-02f, 8.62376615e-02f, 4.48188782e-02f, -1.92391686e-02f, -5.59869185e-02f, 2.24566475e-01f, 2.86739003e-02f, -2.13161930e-01f, -8.41819197e-02f, 1.74385756e-02f, 2.60901079e-03f, 1.82620399e-02f, -4.52377982e-02f, 5.97045161e-02f, -1.73899289e-02f, -2.08743755e-02f, -2.23793145e-02f, -6.55974522e-02f, 1.63311865e-02f, 5.47031723e-02f, 3.00468933e-02f, 4.03645672e-02f, -4.75408398e-02f, 7.12612197e-02f, 7.38248043e-03f, 8.13028440e-02f, -7.92678166e-03f, 6.04444593e-02f, -1.12453988e-02f, -1.05314106e-02f, -1.68105811e-02f, 6.03693649e-02f, 7.22765028e-02f, -1.79239511e-02f, 3.60283367e-02f, -4.67283204e-02f, 6.91755861e-02f, 1.55681055e-02f, -1.99185237e-02f, 2.67466884e-02f, 3.22744511e-02f, 7.85144269e-02f, -4.22528461e-02f, -6.95601758e-03f, -4.00869623e-02f, -3.80507149e-02f, 6.68797418e-02f, 5.71732856e-02f, 5.34845814e-02f, 2.48102322e-02f, 2.41559222e-02f, 5.90829551e-03f, 4.75338735e-02f, -5.91964163e-02f, 5.89820147e-02f, -4.21602726e-02f, -6.78091776e-03f, 1.00218371e-01f, -6.07929826e-02f, 5.07158451e-02f },
    { 2.23213080e-02f, -9.89672169e-03f, -3.49342674e-02f, -3.75215150e-02f, -5.65624144e-03f, 2.01763380e-02f, 1.87366903e-02f, -1.02315009e-01f, 2.97089666e-02f, 2.85395607e-02f, 6.94248527e-02f, 2.09698807e-02f, -7.28225708e-02f, 8.07134714e-03f, -1.09992316e-02f, -2.74605509e-02f, 4.18833420e-02f, -5.15369959e-02f, 9.09570158e-02f, 2.31713317e-02f, 2.71387212e-02f, -3.03670410e-02f, -9.89793241e-02f, -7.43338689e-02f, -2.61544436e-02f, -3.48760150e-02f, 6.13008216e-02f, -2.02852953e-02f, -2.57197544e-02f, -4.26226407e-02f, 7.47878999e-02f, 9.91327092e-02f, -2.93424074e-02f, 1.31897582e-02f, -7.79686775e-03f, 7.10137784e-02f, 9.99299288e-02f, 5.32498434e-02f, -3.32975462e-02f, 2.43980028e-02f, -6.02055043e-02f, -8.09293613e-02f, 5.41004315e-02f, -4.96233366e-02f, 5.90105690e-02f, -4.05484922e-02f, 7.04174712e-02f, -2.78564189e-02f, 6.82564825e-02f, 8.72738957e-02f, 2.23351624e-02f, 3.57961804e-02f, 5.88135086e-02f, -6.45115972e-02f, 1.14362147e-02f, 4.03422769e-03f, 3.88633050e-02f, 9.45521053e-03f, 3.90866771e-02f, -2.13194615e-03f, 1.77507587e-02f, 4.25880449e-03f, -6.21676035e-02f, 2.77809263e-03f },
    { 7.22465711e-03f, -2.19540559e-02f, -1.65213495e-02f, 3.03119142e-02f, 6.02281392e-02f, 1.00588463e-02f, 6.10366873e-02f, -5.68946525e-02f, -3.79676633e-02f, 3.86702009e-02f, -4.86710556e-02f, -9.64510313e-04f, 4.19818424e-02f, -2.45894808e-02f, 1.20213563e-02f, -7.43235573e-02f, 4.34477292e-02f, -4.04060483e-02f, -1.97008029e-02f, 4.22179000e-03f, -3.21306929e-04f, -4.16287716e-04f, -5.02901711e-02f, -1.15737393e-02f, -3.10603827e-02f, -4.63742577e-02f, 7.01731024e-03f, -8.64870008e-03f, 3.52556668e-02f, 8.47388729e-02f, 1.90381221e-02f, 5.19068353e-02f, 3.94066423e-02f, -5.90488967e-03f, 1.00773703e-02f, -5.29715382e-02f, 8.75614956e-03f, -2.56964322e-02f, -4.97539006e-02f, 6.65848479e-02f, -6.31269068e-02f, 4.91294786e-02f, -3.30502540e-02f, 2.22995374e-02f, -5.46674058e-02f, 1.10166688e-02f, 6.22372627e-02f, 1.42967878e-02f, 1.33759812e-01f, 4.09057848e-02f, 1.09855980e-01f, 5.93607202e-02f, -4.45046611e-02f, -2.69300099e-02f, -4.16342076e-03f, -1.52127817e-01f, 6.28623413e-03f, -3.41622122e-02f, -2.61266939e-02f, 1.63997877e-02f, -5.73690236e-02f, 1.88300665e-02f, 1.77867748e-02f, 6.15194514e-02f },
    { -5.97249903e-02f, 3.05581037e-02f, -1.84416864e-02f, -3.27576068e-04f, 5.70549034e-02f, 7.82153904e-02f, 4.75341827e-02f, 3.36680934e-02f, 6.91376626e-02f, -5.89417666e-03f, -2.45877244e-02f, -5.59186116e-02f, 8.78448933e-02f, 7.12668821e-02f, -5.70600107e-02f, 2.96978047e-03f, 3.94796953e-02f, 2.77539808e-02f, 2.03483701e-02f, -2.94030234e-02f, 8.32896754e-02f, -4.12964933e-02f, 2.89314389e-02f, -3.72467600e-02f, -3.97894308e-02f, -1.42913526e-02f, 2.36732308e-02f, 3.83175537e-02f, 2.47547869e-02f, -5.80059178e-02f, -1.25474809e-03f, 7.35968351e-02f, -1.93853937e-02f, 8.60852525e-02f, -3.79844643e-02f, 5.31455409e-03f, 2.63645612e-02f, -1.77651830e-02f, 3.81428227e-02f, 6.77365810e-02f, -4.57196385e-02f, -1.81557797e-02f, 3.44495140e-02f, 1.98700838e-02f, -4.12463099e-02f, 3.58207375e-02f, 2.05689087e-03f, 4.10445035e-02f, 5.30345999e-02f, -5.38369156e-02f, 5.85537311e-03f, -2.91226171e-02f, 4.86775860e-02f, 2.35157423e-02f, -7.83956982e-03f, -5.73752113e-02f, -2.69350987e-02f, -2.79248506e-02f, -3.39189395e-02f, 1.58030372e-02f, -2.13842019e-02f, 7.15356916e-02f, 4.57949378e-02f, 6.27635419e-02f },
    { 2.41425517e-03f, 5.35629876e-02f, -8.17659423e-02f, 5.70330769e-02f, 7.81783164e-02f, -2.62716189e-02f, 1.97401457e-03f, 2.32547838e-02f, -9.31350887e-03f, -4.31620143e-02f, 5.11120073e-03f, 6.59628734e-02f, -3.37189622e-02f, 8.98879543e-02f, 5.31711727e-02f, 5.57794273e-02f, 4.41734977e-02f, 1.57239102e-02f, 3.25456262e-02f, -2.65441742e-02f, 5.79914972e-02f, 8.55675340e-02f, -3.74328159e-02f, 5.38379773e-02f, -6.76149921e-03f, 8.91036633e-03f, -2.98710633e-02f, 1.40969437e-02f, -6.75285459e-02f, -9.82477516e-02f, -2.61735115e-02f, -5.54722510e-02f, -4.22126390e-02f, 3.64472345e-02f, 1.06808126e-01f, -4.82044481e-02f, 3.21375802e-02f, -3.21249887e-02f, -7.67153688e-03f, -6.31574243e-02f, -4.42578830e-02f, -3.02869454e-02f, -1.89131852e-02f, 1.51471645e-02f, 3.30658928e-02f, 7.54665062e-02f, -2.49550622e-02f, -1.83768980e-02f, 1.19296901e-01f, -3.58295441e-02f, 2.88748392e-03f, 2.10684445e-02f, 3.86753380e-02f, 5.19894511e-02f, -1.64378490e-02f, 6.28606901e-02f, -2.01051198e-02f, -1.35984393e-02f, -1.66721717e-02f, -1.55035527e-02f, 4.72859628e-02f, 2.07800455e-02f, -6.23165593e-02f, 7.51008093e-02f },
    { 1.77327078e-03f, -3.52065675e-02f, 8.99693742e-03f, -6.38626963e-02f, -2.95480061e-03f, -8.24831352e-02f, 2.25511678e-02f, -9.75543559e-02f, 7.14182714e-03f, 1.13929864e-02f, 5.88295944e-02f, -1.19561940e-01f, 1.46624644e-03f, 6.16767025e-03f, 6.33463636e-03f, -5.15970727e-03f, -2.90325866e-03f, -2.48127244e-02f, -3.25298384e-02f, 1.19482120e-02f, 6.88418001e-02f, -1.23877160e-03f, -1.83179770e-02f, -2.68435944e-02f, -2.03990769e-02f, 3.53090162e-03f, 2.45629959e-02f, -3.02787274e-02f, 5.11992462e-02f, -8.05460569e-03f, 2.71199960e-02f, 5.39754657e-03f, 7.14300349e-02f, 7.57547561e-03f, -9.60859377e-03f, 6.46815076e-02f, -5.47280200e-02f, 4.43369374e-02f, 7.88246095e-02f, -3.27844620e-02f, 7.36020273e-03f, -1.98484212e-02f, -3.17333871e-03f, 2.01950297e-02f, 1.65359937e-02f, 4.91048247e-02f, 5.54172806e-02f, 5.25143109e-02f, -6.71972930e-02f, -2.34790947e-02f, 9.17132050e-02f, 2.76122373e-02f, 3.39993509e-03f, 1.65796839e-02f, -3.16779241e-02f, -3.54848467e-02f, 5.27475476e-02f, -5.97742088e-02f, -1.98113509e-02f, -5.86277507e-02f, -4.42470284e-03f, -2.22855266e-02f, 8.82072747e-02f, -1.38596930e-02f },
    { 5.92446476e-02f, -1.97982136e-02f, 1.44422837e-02f, -3.67950625e-03f, 1.09275445e-01f, 2.38959938e-02f, -6.18210668e-03f, 9.08156633e-02f, 3.99750732e-02f, 8.84051714e-03f, -2.62619741e-02f, 3.96244265e-02f, -9.83243883e-02f, 5.56031987e-02f, 3.17662656e-02f, 6.60310537e-02f, -1.12638138e-02f, 3.19436453e-02f, 6.09408543e-02f, 5.28580844e-02f, 1.19224750e-01f, 8.04204047e-02f, -1.43373031e-02f, -5.32037802e-02f, 5.99708930e-02f, 4.05243225e-02f, 1.19552232e-01f, -5.37675433e-02f, 3.99720967e-02f, 2.11521499e-02f, 3.25858709e-03f, 5.50399348e-02f, 2.64185891e-02f, 1.26412697e-02f, 1.52510246e-02f, 7.54399318e-03f, 1.34396497e-02f, 7.04498515e-02f, 3.67209651e-02f, 2.59182677e-02f, 2.02948023e-02f, 1.22210546e-03f, -2.44505201e-02f, -1.99386906e-02f, 5.99091612e-02f, 5.51434420e-02f, 2.63566244e-03f, -3.55093144e-02f, 4.19339016e-02f, -1.41366245e-02f, 7.91862756e-02f, 5.51208034e-02f, 3.49263214e-02f, -3.31567787e-02f, 3.59837189e-02f, 5.70411272e-02f, -8.59759748e-03f, 4.96267527e-02f, 4.13125753e-02f, 3.07878647e-02f, 7.23637044e-02f, -4.83189076e-02f, 3.27440500e-02f, 3.37385572e-03f },
    { 4.05340083e-02f, 6.22063391e-02f, 3.50793637e-02f, 3.18533704e-02f, 5.12613580e-02f, -8.83141980e-02f, 5.48428074e-02f, -8.15919340e-02f, 3.07803997e-03f, -9.49840620e-03f, -1.99309341e-03f, -6.46355078e-02f, -5.30120544e-02f, 4.19290327e-02f, -6.42812205e-03f, 6.81230873e-02f, 6.29519299e-02f, -4.99679111e-02f, 8.15694686e-03f, 6.17656335e-02f, 4.15959768e-02f, 9.95945707e-02f, -5.26242843e-03f, 4.84947637e-02f, 7.14708492e-02f, 1.31874820e-02f, 4.16308865e-02f, -1.72562823e-02f, 8.16739257e-03f, -3.30575481e-02f, -3.97010557e-02f, 4.10570437e-03f, 3.90424989e-02f, -2.82487813e-02f, 6.96515711e-03f, -5.43789864e-02f, -9.62468795e-03f, -4.71079201e-02f, 1.68848317e-02f, 9.43797058e-04f, 1.90686360e-02f, -3.75850312e-03f, -3.37177776e-02f, -3.02593354e-02f, 5.56296594e-02f, 6.98275045e-02f, 5.56791611e-02f, 3.06249745e-02f, 3.86060751e-03f, -1.87184028e-02f, 1.28538176e-01f, 5.50244972e-02f, 7.04206601e-02f, 3.00071165e-02f, -2.31323652e-02f, -3.90182529e-03f, -3.59998122e-02f, 9.13841836e-03f, 8.68090335e-03f, 5.70225343e-02f, -1.86870079e-02f, 2.20371373e-02f, -2.08669878e-03f, -2.22413219e-03f },
    { 3.39735076e-02f, 4.04016860e-02f, -4.29951660e-02f, -2.11214996e-03f, 3.67040709e-02f, -2.66775936e-02f, 7.07709789e-02f, 2.35296506e-02f, -2.11681500e-02f, -1.96294039e-02f, 2.26895828e-02f, -8.79591703e-02f, -3.60133089e-02f, -2.06568222e-02f, 1.70237981e-02f, 7.58072436e-02f, 5.55701777e-02f, -8.12492073e-02f, 4.69155498e-02f, -1.10844737e-02f, 6.36484548e-02f, 2.96984538e-02f, 2.77801678e-02f, 5.01863882e-02f, -2.01322064e-02f, -6.23375177e-02f, -1.32784739e-01f, 6.53972328e-02f, -5.45384660e-02f, 1.65222958e-03f, -3.91449407e-02f, -6.19442994e-03f, 8.90567973e-02f, -5.18983752e-02f, 1.99392885e-02f, 6.15511686e-02f, -7.42467269e-02f, 3.56090479e-02f, 1.10081136e-02f, -2.33051577e-03f, 5.83907701e-02f, 4.97370120e-03f, -3.10325846e-02f, 3.45744677e-02f, 1.79906550e-03f, -4.86757569e-02f, -2.06171498e-02f, -1.48638384e-02f, -8.30653757e-02f, 4.64388877e-02f, -5.15905172e-02f, -4.56773937e-02f, 4.18882892e-02f, 5.28253242e-03f, 2.91558076e-02f, 1.71432763e-01f, 4.90280539e-02f, 4.82829027e-02f, -5.48208989e-02f, 3.56544703e-02f, -3.21589597e-02f, -2.18971260e-03f, 2.18652524e-02f, 1.71079002e-02f },
    { -1.65416896e-02f, -1.12408474e-02f, 6.21941611e-02f, -3.14262956e-02f, 7.68353269e-02f, -3.08751222e-02f, -6.54867738e-02f, 4.10750322e-02f, 3.03680990e-02f, -5.78293800e-02f, 4.41495376e-03f, -1.22224957e-01f, 7.23235384e-02f, 6.46012053e-02f, 6.27421364e-02f, -4.32298221e-02f, 7.01687187e-02f, -6.29928336e-02f, 3.08205821e-02f, 4.37390693e-02f, -5.07973097e-02f, -6.10358827e-02f, 5.70640787e-02f, -6.21847734e-02f, -2.80014575e-02f, 4.65239212e-02f, 1.31908781e-03f, 6.02232181e-02f, 3.85455638e-02f, -2.22631563e-02f, 5.80238970e-03f, -8.63319710e-02f, 1.40007557e-02f, 8.23755860e-02f, -6.09748699e-02f, 7.94117823e-02f, -8.61291587e-03f, -6.13861047e-02f, 5.51516190e-02f, -4.02410254e-02f, -3.52992453e-02f, -5.59211038e-02f, 5.22550829e-02f, 7.41175339e-02f, -3.30237485e-02f, -6.59641251e-02f, -1.45201227e-02f, -1.77821666e-02f, -2.11132228e-01f, -1.79573949e-02f, 6.17338456e-02f, -2.68412642e-02f, 2.22556833e-02f, -2.10571140e-02f, 2.18514130e-02f, -1.97573394e-01f, -1.74949653e-02f, 8.31864923e-02f, -5.60422912e-02f, 1.08576827e-02f, -1.86092332e-02f, -6.90965876e-02f, -8.47905595e-03f, -2.39065289e-02f },
    { 3.25077586e-02f, -1.16176344e-02f, -2.02674959e-02f, -3.42885628e-02f, -2.41764709e-02f, -8.17920715e-02f, -3.33838351e-02f, -5.34057505e-02f, -2.84703188e-02f, -2.68010627e-02f, 1.26887299e-02f, 3.94537076e-02f, -1.79053955e-02f, -2.42684688e-02f, 2.01960877e-02f, 1.46643788e-01f, 2.15069186e-02f, -8.72875527e-02f, 4.87044342e-02f, -2.41612382e-02f, 7.01675713e-02f, 1.33668380e-02f, -1.03405133e-01f, -3.30308788e-02f, 5.84136248e-02f, 2.73274053e-02f, -9.31999013e-02f, -1.93330906e-02f, 4.50787805e-02f, 1.43984454e-02f, 3.21819447e-02f, -4.09296714e-02f, 7.48782307e-02f, 4.99113835e-02f, 4.33057360e-02f, -7.58409575e-02f, 7.19304755e-02f, 7.58886635e-02f, 2.60181259e-03f, -5.22885956e-02f, -9.18919034e-03f, 2.69547570e-02f, -1.16411448e-02f, -1.82819143e-02f, 2.49142665e-03f, -7.86330253e-02f, 8.41466710e-02f, -3.66594195e-02f, -5.14569655e-02f, 2.14870460e-02f, -1.52062789e-01f, 3.46466638e-02f, 1.37401316e-02f, 3.42946005e-04f, 4.10731547e-02f, 1.02417551e-01f, 5.01103289e-02f, 3.42410617e-02f, -7.24674063e-03f, -2.95234118e-02f, 7.30535686e-02f, 3.17607797e-03f, -3.96935642e-02f, -5.65246977e-02f },
    { 2.71058418e-02f, 8.32348391e-02f, 4.38908674e-02f, 4.64576893e-02f, -3.21346708e-02f, 2.30233222e-02f, 1.06010539e-02f, 1.86415203e-02f, 4.74425545e-03f, -1.11126028e-01f, 6.59923330e-02f, 1.34779364e-01f, -1.05473273e-01f, 4.47308235e-02f, -4.45456095e-02f, -2.93691494e-02f, -4.13086377e-02f, -4.47825566e-02f, -1.44701088e-02f, -3.63337994e-02f, 2.45315302e-02f, 2.28512727e-04f, -1.92732923e-02f, -9.20645148e-03f, -5.28808311e-03f, 4.24505994e-02f, 9.00257565e-03f, -5.62768243e-03f, 9.65202134e-03f, -1.01043746e-01f, 6.22080900e-02f, 7.32656345e-02f, 1.20489942e-02f, -8.79484564e-02f, -6.15061866e-03f, -2.85633579e-02f, -1.65897924e-02f, -4.85824235e-02f, 5.44801876e-02f, -1.16606830e-02f, 3.72655503e-02f, 5.27639464e-02f, 6.78304350e-03f, 2.62949020e-02f, -3.85434702e-02f, -4.21929844e-02f, 5.66037297e-02f, -2.54054442e-02f, -1.09766476e-01f, -2.40717623e-02f, 6.69721439e-02f, -8.53379909e-03f, 8.21387246e-02f, 7.01128319e-02f, -2.07452495e-02f, -1.22338004e-01f, 1.17596018e-03f, -4.78708325e-03f, -2.86012981e-02f, 2.88937427e-02f, -4.33308408e-02f, 8.36917907e-02f, 4.82747406e-02f, -7.43883774e-02f },
    { -6.83841407e-02f, 3.63952741e-02f, -8.72161165e-02f, 5.72875291e-02f, 2.70254817e-02f, 9.12232604e-03f, -9.56039689e-03f, 2.60678641e-02f, 2.48209648e-02f, 5.69449849e-02f, -4.52460423e-02f, 1.15728490e-01f, -5.52433766e-02f, 2.02296302e-02f, 5.46765663e-02f, -2.71318275e-02f, -1.32673921e-03f, -8.16856846e-02f, 7.25897178e-02f, 6.78066909e-02f, 1.22193936e-02f, -5.65085188e-02f, -4.50096792e-03f, 5.64122386e-02f, 7.08358586e-02f, -5.83327264e-02f, 9.83716734e-03f, -7.34886155e-02f, 2.81412788e-02f, 4.70727198e-02f, 4.67741750e-02f, -3.91125455e-02f, 7.75378868e-02f, -3.90809402e-02f, -6.80774124e-03f, -9.08530783e-03f, -7.58901164e-02f, 7.64136016e-03f, 1.59814037e-04f, -2.39647515e-02f, -4.95236628e-02f, 1.33771040e-02f, -4.61578518e-02f, 1.76566225e-02f, -2.10459623e-03f, -2.37334967e-02f, -1.81902237e-02f, -2.94314995e-02f, 8.54230076e-02f, 3.64809744e-02f, 9.82124433e-02f, 2.05484498e-02f, -2.65978333e-02f, -2.03470187e-03f, 3.44209857e-02f, 1.23610891e-01f, 4.83764447e-02f, 4.60151173e-02f, -4.59554493e-02f, 3.20605934e-02f, -4.12772298e-02f, -5.03312610e-02f, 1.26477545e-02f, -2.13595293e-03f },
